%YAML:1.0
---
opencv_ml_svm:
   format: 3
   svmType: C_SVC
   kernel:
      type: RBF
      gamma: 5.3830000000000000e+00
   C: 2.6699999999999999e+00
   term_criteria: { epsilon:1.1920928955078125e-07, iterations:1000 }
   var_count: 64
   class_count: 10
   class_labels: !!opencv-matrix
      rows: 10
      cols: 1
      dt: i
      data: [ 0, 1, 2, 3, 4, 5, 6, 7, 8, 9 ]
   sv_total: 2051
   support_vectors:
      - [ 1.24778867e-01, 5.13396896e-02, 0., 0., 0., 0., 0., 0., 0., 0.,
          0., 0., 3.96930248e-01, 1.13250099e-01, 7.01826066e-02,
          7.67081976e-02, 2.00905308e-01, 3.35828274e-01, 0., 0., 0., 0.,
          0., 0., 7.47644305e-02, 7.56218061e-02, 2.21429132e-02, 0., 0.,
          0., 0., 5.45881391e-02, 2.26665795e-01, 1.59368366e-01, 0., 0.,
          8.84378403e-02, 7.13988543e-02, 1.36737332e-01, 1.77239999e-01,
          2.15424463e-01, 2.24252760e-01, 0., 0., 2.20094681e-01,
          1.65582657e-01, 1.57181069e-01, 1.48049012e-01, 0.,
          2.46726304e-01, 0., 0., 0., 0., 0., 0., 1.23282276e-01,
          4.27263677e-01, 1.10271528e-01, 0., 5.39486334e-02, 0., 0., 0. ]
      - [ 1.69050217e-01, 2.16427580e-01, 1.26017332e-01, 0.,
          1.58462211e-01, 1.47225916e-01, 9.03154016e-02, 1.46796003e-01,
          1.39802039e-01, 2.02037662e-01, 0., 3.08948364e-02,
          1.87620819e-01, 1.75240353e-01, 1.12458281e-01, 8.67546573e-02,
          2.92798489e-01, 2.05830604e-01, 0., 0., 0., 0., 0., 0.,
          6.90983161e-02, 8.72042626e-02, 0., 0., 1.14285022e-01,
          1.75388619e-01, 1.11757785e-01, 1.17207505e-01, 9.27469730e-02,
          2.80813038e-01, 1.71919286e-01, 1.43965945e-01, 1.03092030e-01,
          6.25891536e-02, 8.22298899e-02, 1.12681858e-01, 1.59062818e-01,
          2.79484123e-01, 0., 0., 9.51255560e-02, 0., 0., 0., 0., 0., 0.,
          0., 0., 0., 0., 0., 1.17768437e-01, 4.12286848e-01, 0., 0.,
          2.18746103e-02, 0., 2.68032588e-02, 7.09088668e-02 ]
      - [ 1.64690018e-01, 1.36193454e-01, 8.08697268e-02, 7.41849020e-02,
          2.50971735e-01, 1.00526817e-01, 8.88402909e-02, 6.01627864e-02,
          1.01791658e-01, 8.90677720e-02, 9.97602865e-02, 9.34063941e-02,
          1.67036891e-01, 0., 6.82968348e-02, 5.58420792e-02,
          1.54988959e-01, 0., 9.22160223e-02, 7.94359073e-02,
          1.05522670e-01, 4.86911610e-02, 1.05869271e-01, 6.98603764e-02,
          0., 6.85797706e-02, 7.22137690e-02, 9.33064073e-02,
          2.32721627e-01, 1.99898288e-01, 2.71113336e-01, 1.35813609e-01,
          8.80916864e-02, 0., 0., 1.90106004e-01, 1.38264075e-01,
          1.80228144e-01, 1.26664981e-01, 5.63677140e-02, 8.46144855e-02,
          7.68341199e-02, 1.20710351e-01, 3.04346025e-01, 1.81631893e-01,
          0., 0., 0., 2.18863804e-02, 1.19903088e-01, 7.28007853e-02, 0.,
          2.56408323e-02, 1.01855583e-01, 1.88147098e-01, 1.72308460e-01,
          2.38155797e-01, 2.47577518e-01, 6.65288419e-02, 0.,
          6.26672506e-02, 8.89222100e-02, 5.16821705e-02, 1.03494778e-01 ]
      - [ 1.92439452e-01, 2.07383841e-01, 1.53364345e-01, 4.00167368e-02,
          3.04503497e-02, 0., 0., 0., 0., 1.61369205e-01, 1.52867690e-01,
          1.39363974e-01, 5.18198647e-02, 1.26009330e-01, 9.51108262e-02,
          1.34434775e-01, 3.32402401e-02, 1.49007291e-01, 2.93343514e-01,
          0., 8.45876709e-02, 0., 0., 0., 4.67097461e-02, 0.,
          2.20585406e-01, 2.22711548e-01, 1.30241603e-01, 9.83154550e-02,
          6.48935661e-02, 7.70767480e-02, 1.27073944e-01, 1.40550777e-01,
          1.51390791e-01, 0., 4.44062501e-02, 0., 1.41879633e-01,
          1.31125897e-01, 2.38015741e-01, 2.36154005e-01, 0.,
          1.28188774e-01, 1.27496243e-01, 7.84438178e-02, 8.37291777e-02,
          1.11236989e-01, 1.26869455e-01, 0., 6.00167140e-02, 0.,
          8.50715041e-02, 0., 2.89139122e-01, 1.66555777e-01,
          1.61786601e-01, 0., 0., 2.44201254e-02, 1.47189319e-01,
          1.57848194e-01, 2.12767333e-01, 0. ]
      - [ 2.72980601e-01, 1.22033931e-01, 1.20446496e-01, 9.63642076e-02,
          7.89785534e-02, 0., 0., 0., 4.47325148e-02, 0., 0., 0., 0.,
          8.73333067e-02, 1.37635931e-01, 2.19245970e-01, 1.93880424e-01,
          1.13032237e-01, 0., 9.86884534e-02, 9.78122205e-02,
          1.40066832e-01, 2.35142156e-01, 1.27611950e-01, 4.58202213e-02,
          0., 0., 0., 9.24282745e-02, 1.67729720e-01, 2.37444639e-01,
          1.86470911e-01, 0., 0., 0., 0., 1.85000762e-01, 2.03717783e-01,
          1.93406850e-01, 1.52497485e-01, 2.67775089e-01, 0., 0.,
          6.06762059e-02, 8.53101760e-02, 0., 0., 0., 1.11263677e-01,
          2.11374760e-01, 9.89043713e-02, 1.28007144e-01, 3.80112641e-02,
          2.49949377e-02, 4.54536714e-02, 1.69768214e-01, 1.97801486e-01,
          3.02604318e-01, 0., 0., 1.61851764e-01, 1.06006578e-01,
          6.33725524e-02, 7.57886097e-02 ]
      - [ 3.02108526e-01, 2.36278892e-01, 8.08615163e-02, 7.13648945e-02,
          7.81751648e-02, 0., 7.53836110e-02, 7.08650947e-02,
          9.36564580e-02, 1.44125268e-01, 1.46271259e-01, 4.11519669e-02,
          1.50390351e-02, 4.65093814e-02, 1.20651253e-01, 1.70366868e-01,
          2.65311480e-01, 1.76935360e-01, 0., 0., 0., 0., 0., 0.,
          1.57120284e-02, 0., 0., 8.33421052e-02, 1.76121056e-01,
          1.80053547e-01, 1.40705854e-01, 0., 1.05061814e-01,
          1.94490507e-01, 1.43641755e-01, 0., 1.97660327e-02,
          8.01526457e-02, 1.95574746e-01, 2.01762885e-01, 3.25299144e-01,
          1.00366421e-01, 5.86387925e-02, 1.45036981e-01, 1.08922146e-01,
          6.03135303e-02, 7.17127845e-02, 0., 1.52876154e-01, 0., 0., 0.,
          0., 0., 0., 0., 2.27517635e-01, 3.61908346e-01, 0.,
          2.37392597e-02, 9.68075730e-03, 0., 7.62967765e-02,
          6.96657747e-02 ]
      - [ 1.22013226e-01, 1.38899297e-01, 1.86097786e-01, 2.47771159e-01,
          2.18705609e-01, 1.30843982e-01, 1.09355442e-01, 1.07578136e-01,
          4.62485850e-02, 0., 0., 1.81855887e-01, 1.98301420e-01,
          1.25480250e-01, 8.26830342e-02, 6.58751279e-02, 4.05139476e-02,
          0., 2.39494354e-01, 1.39658928e-01, 1.43044189e-01, 0., 0.,
          5.79492860e-02, 4.95775230e-02, 1.36450246e-01, 3.06444705e-01,
          2.34995216e-01, 1.90897524e-01, 7.55915418e-02, 0.,
          4.82971072e-02, 0., 0., 0., 0., 2.88902789e-01, 1.00683033e-01,
          1.76457390e-01, 2.00256810e-01, 3.41545790e-02, 0., 0., 0., 0.,
          0., 0., 0., 0., 0., 0., 0., 1.94897220e-01, 6.09152913e-02, 0.,
          0., 2.29549408e-03, 5.25227487e-02, 1.56221557e-02,
          3.23507428e-01, 2.17873812e-01, 0., 0., 0. ]
      - [ 1.82423174e-01, 1.66081458e-01, 1.39424324e-01, 5.73898703e-02,
          2.35133842e-02, 4.72555682e-02, 0., 0., 0., 1.57569870e-01,
          8.26285481e-02, 8.77668411e-02, 7.97514990e-02, 1.94609448e-01,
          1.94735512e-01, 1.69335872e-01, 1.40865892e-01, 8.29064175e-02,
          0., 2.34387234e-01, 2.23077148e-01, 1.19530767e-01, 0., 0., 0.,
          0., 0., 0., 1.26457497e-01, 1.08167186e-01, 1.29941985e-01,
          6.97012022e-02, 1.10328436e-01, 8.56332183e-02, 1.46735534e-01,
          0., 9.55927074e-02, 0., 2.16543943e-01, 2.10891575e-01,
          2.43372589e-01, 0., 0., 2.07979724e-01, 6.49734512e-02,
          1.17420934e-01, 6.83415532e-02, 6.61049634e-02, 1.73085362e-01,
          1.71264783e-01, 1.94539726e-01, 1.37689799e-01, 4.11495902e-02,
          0., 4.75549214e-02, 8.61719772e-02, 2.29708478e-01,
          2.35983968e-01, 7.58833438e-02, 1.55796304e-01, 1.25408620e-01,
          2.54002679e-02, 7.82123953e-02, 9.36238095e-02 ]
      - [ 2.85825312e-01, 7.19769672e-02, 0., 6.40936568e-02,
          1.07949004e-01, 9.65661332e-02, 1.25216484e-01, 2.05121458e-01,
          2.71808803e-01, 0., 0., 0., 4.60520610e-02, 1.20734414e-02, 0.,
          1.55068204e-01, 1.28457367e-01, 6.72532767e-02, 0., 0.,
          1.90183282e-01, 1.01865567e-01, 9.15911347e-02, 6.68445453e-02,
          2.61678584e-02, 2.99506597e-02, 3.42446491e-02, 3.01701605e-01,
          2.01306924e-01, 8.11208189e-02, 9.90812182e-02, 9.06013772e-02,
          3.62505645e-01, 9.76080298e-02, 3.43378447e-02, 5.99432066e-02,
          9.24909860e-02, 0., 6.81684166e-02, 9.51694623e-02,
          1.75074548e-01, 0., 0., 0., 7.72972405e-02, 0., 0., 0.,
          1.79624990e-01, 1.09970957e-01, 1.07088141e-01, 7.72536099e-02,
          1.63761005e-01, 0., 0., 0., 2.71810144e-01, 2.51619399e-01, 0.,
          5.34810796e-02, 1.23548359e-01, 1.14042602e-01, 8.57861638e-02,
          1.47865355e-01 ]
      - [ 2.10247725e-01, 2.27187157e-01, 9.05183703e-02, 1.31888345e-01,
          1.07588716e-01, 1.11676313e-01, 1.20463423e-01, 1.57070532e-01,
          9.84230936e-02, 0., 0., 0., 1.86802894e-01, 1.72811985e-01,
          1.76388159e-01, 1.29648343e-01, 2.93100655e-01, 0.,
          3.76322009e-02, 0., 0., 0., 2.85892468e-02, 0., 0.,
          3.10595948e-02, 0., 0., 6.76987842e-02, 9.97469425e-02,
          8.32050517e-02, 2.80836582e-01, 2.02651814e-01, 1.51262909e-01,
          8.40731934e-02, 3.77618447e-02, 7.69594312e-02, 1.26980811e-01,
          1.86142564e-01, 1.61674395e-01, 2.63544112e-01, 1.05293833e-01,
          2.07953423e-01, 1.31887525e-01, 5.25396094e-02, 0.,
          2.47062165e-02, 0., 0., 0., 0., 0., 0., 0., 1.95505545e-01,
          1.81043506e-01, 2.84870923e-01, 1.37916088e-01, 1.31432340e-01,
          1.18581504e-01, 3.50534767e-02, 0., 0., 0. ]
      - [ 2.42654487e-01, 1.94560453e-01, 0., 9.22412574e-02,
          1.04682110e-01, 0., 9.91972685e-02, 3.82980965e-02,
          1.03352621e-01, 7.41524249e-02, 8.89317468e-02, 1.93155721e-01,
          1.76812753e-01, 1.31229922e-01, 1.81483716e-01, 1.86671495e-01,
          2.37296432e-01, 2.79355407e-01, 3.08647472e-02, 0., 0., 0., 0.,
          0., 4.40177843e-02, 0., 5.44146597e-02, 0., 1.00679502e-01,
          1.08483359e-01, 6.82067778e-03, 1.73916847e-01, 7.27066696e-02,
          1.49246961e-01, 7.69043267e-02, 0., 3.12272105e-02,
          1.62561938e-01, 1.37079731e-01, 1.26228780e-01, 3.63332331e-01,
          1.19011648e-01, 0., 0., 1.17392533e-01, 9.39375237e-02,
          1.15308464e-01, 8.19466412e-02, 1.09151781e-01, 1.11006618e-01,
          0., 0., 0., 0., 1.69379227e-02, 0., 3.30668569e-01,
          2.89992094e-01, 0., 0., 8.66303872e-03, 0., 0., 0. ]
      - [ 2.37702325e-01, 1.77400842e-01, 0., 4.80850935e-02,
          5.46577480e-03, 0., 0., 0., 0., 0., 0., 1.12952694e-01,
          2.06592292e-01, 1.47134095e-01, 1.59804627e-01, 1.25930607e-01,
          2.53944546e-01, 1.44388705e-01, 1.82766005e-01, 2.53194541e-01,
          1.18884286e-02, 0., 0., 0., 2.33320445e-02, 0., 0.,
          5.01348190e-02, 3.34508391e-03, 4.65242490e-02, 6.62507415e-02,
          1.49610877e-01, 1.31217659e-01, 0., 0., 0., 9.32542514e-03,
          5.73209934e-02, 1.66161045e-01, 3.95015001e-01, 1.61462083e-01,
          0., 0., 0., 5.21829948e-02, 7.70085454e-02, 9.74341482e-02,
          1.91923320e-01, 2.30760828e-01, 9.47547108e-02, 9.85669941e-02,
          0., 4.13399115e-02, 0., 1.17299207e-01, 2.44932026e-01,
          3.71068567e-01, 0., 5.11146300e-02, 5.60476892e-02,
          8.27027671e-03, 0., 0., 0. ]
      - [ 3.06791574e-01, 2.19384179e-01, 1.43005252e-01, 1.83450550e-01,
          8.03198069e-02, 9.91803929e-02, 1.10961959e-01, 0., 0., 0., 0.,
          0., 2.69515216e-02, 1.11843348e-01, 1.39837682e-01,
          1.66101187e-01, 1.83236718e-01, 0., 0., 0., 0., 0., 0., 0., 0.,
          0., 0., 0., 2.04745028e-02, 2.13440120e-01, 1.87205836e-01,
          3.39726835e-01, 8.84826183e-02, 7.67395869e-02, 0., 0.,
          1.22376412e-01, 1.94004923e-01, 1.64461479e-01, 2.04658955e-01,
          2.84662962e-01, 1.57284081e-01, 1.18936613e-01, 0.,
          2.14441847e-02, 0., 0., 0., 0., 0., 0., 0., 0., 0.,
          5.47858002e-03, 2.25002304e-01, 3.33725691e-01, 1.61880329e-01,
          2.00712204e-01, 0., 2.21680794e-02, 0., 0., 0. ]
      - [ 3.02991331e-01, 2.12481692e-01, 1.49110034e-01, 1.49010986e-01,
          5.53728826e-02, 9.35416147e-02, 8.38514641e-02, 1.04667723e-01,
          0., 0., 0., 0., 0., 0., 0., 0., 1.15684383e-01, 2.40380719e-01,
          0., 0., 9.75596830e-02, 0., 6.90304264e-02, 0., 4.43663588e-03,
          7.47390240e-02, 1.58052519e-01, 2.31009766e-01, 1.75668463e-01,
          1.70203090e-01, 1.64768651e-01, 1.56767368e-01, 1.94336578e-01,
          7.50376135e-02, 0., 0., 9.27639082e-02, 1.65138528e-01,
          7.47415051e-02, 3.05495083e-01, 2.19343096e-01, 0., 0., 0.,
          6.47799461e-04, 0., 0., 0., 1.08304277e-01, 0., 6.72258288e-02,
          0., 1.30266368e-01, 1.33535787e-01, 1.11201636e-01,
          1.89915657e-01, 2.21665829e-01, 1.54997781e-01, 2.17272401e-01,
          0., 1.01379909e-01, 8.13889280e-02, 1.20442539e-01,
          1.74054399e-01 ]
      - [ 1.49898589e-01, 1.21505193e-01, 3.28484178e-01, 1.53026015e-01,
          1.57841623e-01, 4.71770577e-02, 7.04325214e-02, 0.,
          3.80694792e-02, 9.50358883e-02, 1.57257870e-01, 9.58991721e-02,
          6.37339279e-02, 0., 7.16026872e-02, 0., 2.80455649e-01, 0., 0.,
          0., 0., 0., 0., 0., 0., 0., 0., 2.18245894e-01, 2.62102276e-01,
          1.35902703e-01, 8.55581686e-02, 1.83741674e-01, 1.15663223e-01,
          3.97012830e-02, 1.94081113e-01, 0., 1.08907789e-01,
          7.19393119e-02, 4.30948623e-02, 0., 1.06997274e-01,
          3.25241446e-01, 0., 1.32735133e-01, 1.50145605e-01,
          1.00584075e-01, 7.26653039e-02, 7.32990131e-02, 9.79251638e-02,
          6.59511164e-02, 0., 1.74818441e-01, 2.06969261e-01,
          5.21619022e-02, 1.00862846e-01, 8.70767236e-02, 1.86558306e-01,
          2.96650946e-01, 0., 0., 5.61449863e-02, 0., 3.07402890e-02,
          8.25946257e-02 ]
      - [ 3.30316663e-01, 1.58894926e-01, 1.00681432e-01, 1.18179843e-01,
          1.76825821e-01, 1.11550502e-01, 8.39403793e-02, 1.61749154e-01,
          0., 0., 0., 0., 0., 0., 0., 1.22578360e-01, 1.80627540e-01,
          1.40838876e-01, 8.19413811e-02, 7.64129907e-02, 1.18222669e-01,
          8.12880173e-02, 8.57764259e-02, 1.05927497e-01, 4.79705557e-02,
          0., 7.12212250e-02, 2.61175185e-01, 2.31723934e-01,
          1.04443632e-01, 1.37050301e-01, 1.44476563e-01, 1.66319296e-01,
          6.94731846e-02, 0., 0., 7.67814508e-03, 0., 5.77402487e-02,
          3.14071655e-01, 2.58154988e-01, 0., 0., 0., 1.48684462e-03, 0.,
          0., 0., 7.62160495e-02, 5.37097082e-02, 0., 0., 2.08804339e-01,
          1.66622460e-01, 1.24656089e-01, 1.88829228e-01, 1.68072402e-01,
          1.39009222e-01, 9.73021314e-02, 2.06502542e-01, 1.48509756e-01,
          9.16088149e-02, 5.49529865e-02, 0. ]
      - [ 1.94966614e-01, 1.35102913e-01, 1.39332026e-01, 1.14854224e-01,
          2.32463658e-01, 1.67809963e-01, 8.08490813e-02, 1.45129994e-01,
          1.16273001e-01, 1.03277206e-01, 1.36914268e-01, 7.54275769e-02,
          0., 4.40547690e-02, 7.50473663e-02, 0., 1.44534752e-01, 0., 0.,
          1.56481173e-02, 2.02364102e-01, 1.42019331e-01, 1.25834525e-01,
          1.02120385e-01, 1.38732046e-01, 8.79318416e-02, 1.14741400e-01,
          7.72455186e-02, 1.52967975e-01, 2.15228766e-01, 1.75373152e-01,
          5.02377450e-02, 8.73315334e-02, 0., 0., 4.38301377e-02,
          1.50680125e-01, 1.57317832e-01, 2.01971561e-01, 1.10995635e-01,
          1.63799942e-01, 0., 0., 5.43855429e-02, 1.37329996e-01,
          1.24627709e-01, 1.69006675e-01, 2.35296190e-01, 1.91080108e-01,
          1.87944949e-01, 1.48947373e-01, 1.63044095e-01, 1.01602830e-01,
          0., 2.28696913e-02, 6.21228777e-02, 1.36020869e-01,
          1.85082972e-01, 1.23242997e-01, 9.25719142e-02, 1.32136852e-01,
          0., 0., 0. ]
      - [ 2.39926800e-01, 1.06384896e-01, 9.85926110e-03, 1.34139387e-02,
          6.67602988e-03, 0., 0., 0., 3.52778733e-02, 0., 0.,
          1.59304857e-01, 1.16981111e-01, 1.42858565e-01, 1.05059989e-01,
          1.68106392e-01, 1.62820399e-01, 7.26264864e-02, 9.78555530e-02,
          1.16240375e-01, 2.30321735e-01, 2.36737370e-01, 5.41261397e-02,
          1.17551005e-02, 0., 0., 0., 3.98893245e-02, 6.65060803e-02,
          1.75278276e-01, 1.94681808e-01, 1.14622310e-01, 1.18374899e-01,
          1.50180966e-01, 0., 0., 4.08654548e-02, 4.88112383e-02,
          2.51142770e-01, 2.87663549e-01, 1.72246650e-01, 0.,
          5.84907793e-02, 4.60391529e-02, 6.73197806e-02, 7.55708590e-02,
          7.62235522e-02, 1.21628217e-01, 1.50704756e-01, 1.60561427e-01,
          1.33689359e-01, 1.87726483e-01, 8.14961269e-02, 0.,
          1.63234770e-01, 1.90966398e-01, 2.11826041e-01, 1.75031260e-01,
          0., 0., 2.09056094e-01, 1.00160517e-01, 9.01076645e-02,
          1.21455550e-01 ]
      - [ 1.72213584e-01, 2.58614451e-01, 0., 0., 9.66737121e-02,
          1.10113829e-01, 1.18409358e-01, 0., 9.89601016e-02, 0.,
          4.24596630e-02, 2.79133737e-01, 1.49837881e-01, 1.21410891e-01,
          1.06151104e-01, 9.90886539e-02, 1.00480102e-01, 8.56434554e-02,
          1.24900810e-01, 3.45958680e-01, 1.34326786e-01, 0., 0.,
          4.02662754e-02, 8.36892202e-02, 2.48342697e-02, 7.52388760e-02,
          8.15706328e-02, 7.35325590e-02, 2.65961811e-02, 6.50987998e-02,
          0., 6.70914724e-02, 0., 0., 0., 1.30265266e-01, 2.72196442e-01,
          1.89549670e-01, 1.87724546e-01, 1.13244534e-01, 0., 0.,
          6.64237589e-02, 9.85585302e-02, 1.07118271e-01, 1.01949997e-01,
          1.50165409e-01, 1.24292068e-01, 1.14194810e-01, 1.42867744e-01,
          1.35067090e-01, 1.06880657e-01, 8.34395066e-02, 1.58395216e-01,
          1.10603191e-01, 2.23908439e-01, 6.09907582e-02, 1.75686210e-01,
          1.70348674e-01, 1.89876035e-01, 8.22560862e-02, 0., 0. ]
      - [ 1.45735666e-01, 1.04589745e-01, 1.95321009e-01, 1.14498399e-01,
          1.11012325e-01, 0., 0., 0., 0., 0., 2.57350713e-01,
          2.09450617e-01, 1.60805687e-01, 6.36369213e-02, 0.,
          6.65674731e-02, 1.69236124e-01, 1.19261287e-01, 1.23771496e-01,
          1.24237895e-01, 1.53361246e-01, 1.35025322e-01, 1.15318060e-01,
          1.44096062e-01, 2.54135346e-03, 0., 0., 0., 2.74630543e-02,
          4.02048752e-02, 1.71615213e-01, 1.50069654e-01, 1.59498677e-01,
          1.17876939e-01, 1.83022961e-01, 1.81642026e-01, 9.31246877e-02,
          0., 1.06735632e-01, 4.70742919e-02, 1.04148433e-01,
          1.46966055e-01, 0., 1.84108526e-01, 2.07100928e-01,
          1.20058998e-01, 1.00147307e-01, 7.71937445e-02, 6.96595609e-02,
          1.16084315e-01, 1.27997383e-01, 1.82643771e-01, 5.12084439e-02,
          0., 0., 2.00629264e-01, 2.40928039e-01, 1.46853611e-01,
          9.00013298e-02, 0., 9.17413086e-02, 1.63993642e-01,
          1.97227910e-01, 1.24136582e-01 ]
      - [ 4.44867969e-01, 7.44037777e-02, 0., 0., 2.48537096e-03, 0., 0.,
          0., 1.33185014e-01, 0., 0., 0., 0., 0., 0., 0., 4.02779996e-01,
          5.56445159e-02, 0., 1.04568794e-01, 1.12943992e-01,
          7.37353638e-02, 0., 1.13112159e-01, 1.92958251e-01, 0.,
          4.37994562e-02, 0., 9.55825392e-03, 3.77219021e-02,
          1.24836467e-01, 2.10023493e-01, 0., 0., 0., 0., 0.,
          9.68763884e-03, 2.08993955e-03, 1.70895413e-01, 3.92024040e-01,
          2.30586976e-02, 0., 0., 0., 0., 0., 0., 0., 0., 9.35402364e-02,
          1.82411760e-01, 2.02908561e-01, 1.19290076e-01, 1.85660794e-01,
          1.91147164e-01, 2.36206248e-01, 1.97325289e-01, 1.56250834e-01,
          0., 1.03076035e-02, 0., 0., 0. ]
      - [ 2.01102048e-01, 2.11352900e-01, 6.72731176e-02, 3.06697283e-02,
          8.77449214e-02, 6.51862472e-02, 4.65658195e-02, 4.37935703e-02,
          8.29933286e-02, 0., 1.13286227e-01, 0., 2.30886638e-01,
          1.68132573e-01, 1.25092700e-01, 1.64586201e-01, 9.96076614e-02,
          0., 8.08550641e-02, 1.29986748e-01, 3.04466605e-01,
          2.15488851e-01, 2.93331631e-02, 0., 0., 0., 1.10017499e-02,
          4.81837317e-02, 1.83823422e-01, 1.00963429e-01, 0.,
          6.95450902e-02, 0., 0., 0., 1.02601470e-02, 2.34100223e-01,
          2.36233547e-01, 1.30732358e-01, 8.41655359e-02, 1.31157041e-01,
          5.07462062e-02, 7.35466182e-02, 1.35894820e-01, 2.92696327e-01,
          9.92549509e-02, 0., 0., 1.21098742e-01, 0., 1.23640887e-01,
          2.91875869e-01, 1.30360171e-01, 3.70612517e-02, 9.94347185e-02,
          0., 6.58831149e-02, 4.22540419e-02, 0., 0., 9.67429355e-02,
          2.06601113e-01, 1.82805791e-01, 1.25238851e-01 ]
      - [ 1.73775375e-01, 1.61242142e-01, 7.41607994e-02, 4.64962460e-02,
          5.89420535e-02, 0., 0., 0., 3.95474546e-02, 0., 0., 0.,
          1.33801877e-01, 2.34048203e-01, 2.22358599e-01, 1.90196961e-01,
          1.33044407e-01, 1.13080353e-01, 1.54643774e-01, 3.21892262e-01,
          8.92272517e-02, 0., 0., 0., 3.82280312e-02, 0., 0., 0.,
          1.29407674e-01, 1.50702164e-01, 8.34732354e-02, 0.,
          1.87142063e-02, 8.51138383e-02, 5.85065074e-02, 3.34309079e-02,
          1.63130969e-01, 1.71353385e-01, 2.17502594e-01, 1.43343151e-01,
          2.89776534e-01, 7.58704171e-02, 3.11436597e-02, 8.54937881e-02,
          7.59754404e-02, 5.19405380e-02, 6.51844069e-02, 5.99353537e-02,
          0., 1.50243714e-01, 2.25864038e-01, 0., 6.99911192e-02,
          2.48846859e-02, 1.17417462e-01, 1.05453819e-01, 1.76543728e-01,
          2.29111552e-01, 2.15487495e-01, 9.99545380e-02, 2.15208143e-01,
          6.46368489e-02, 7.25402609e-02, 9.38296095e-02 ]
      - [ 1.65527508e-01, 0., 7.52667040e-02, 3.38646621e-01,
          1.19583219e-01, 0., 0., 0., 0., 7.04594254e-02, 5.44126965e-02,
          5.02542257e-02, 2.24483326e-01, 1.23442948e-01, 9.03664827e-02,
          1.06586255e-01, 2.37341985e-01, 0., 0., 3.36543657e-02, 0.,
          7.25848079e-02, 9.24277306e-02, 1.08010121e-01, 1.36402890e-01,
          1.06052674e-01, 0., 0., 7.73217976e-02, 1.30690262e-01,
          2.06994608e-01, 2.29173407e-01, 2.12083176e-01, 0., 0.,
          2.05323547e-01, 1.40041053e-01, 8.13096836e-02, 5.21807186e-02,
          2.30471641e-02, 9.24723297e-02, 2.19447404e-01, 1.84731886e-01,
          9.75899398e-02, 8.31620395e-02, 8.00515264e-02, 0.,
          1.03288352e-01, 1.06417835e-01, 1.88272372e-01, 2.08278432e-01,
          9.23095942e-02, 7.68587291e-02, 0., 5.68673201e-02,
          3.01109776e-02, 1.83628678e-01, 2.75250316e-01, 1.42245352e-01,
          1.05342716e-01, 1.43623695e-01, 0., 0., 0. ]
      - [ 4.45335776e-01, 1.13304734e-01, 0., 0., 6.57980889e-02, 0., 0.,
          0., 1.46284968e-01, 5.33593670e-02, 3.64703126e-02, 0., 0., 0.,
          0., 1.88694522e-02, 3.15297812e-01, 4.18977179e-02, 0., 0.,
          2.63538398e-02, 4.38079461e-02, 7.30813667e-02, 1.26629964e-01,
          1.41077545e-02, 0., 0., 5.39870188e-02, 3.76380756e-02,
          1.04146846e-01, 2.35665783e-01, 2.24659413e-01, 0., 0., 0., 0.,
          2.99063027e-02, 1.12357445e-01, 2.28773519e-01, 3.41525435e-01,
          1.67749196e-01, 0., 7.70775005e-02, 6.61110207e-02, 0.,
          4.37260978e-02, 1.02244146e-01, 9.43950340e-02, 1.18639208e-01,
          8.91275555e-02, 6.71607479e-02, 5.47942370e-02, 8.76301378e-02,
          7.01839551e-02, 7.57367983e-02, 2.65515834e-01, 2.47352839e-01,
          2.32739925e-01, 1.85839564e-01, 0., 3.93555276e-02, 0., 0., 0. ]
      - [ 2.18625814e-01, 2.02640057e-01, 1.04051225e-01, 1.53093487e-01,
          1.85647130e-01, 7.59075284e-02, 1.08178802e-01, 0.,
          7.51758218e-02, 0., 1.52680054e-01, 1.61631107e-01,
          8.75458345e-02, 0., 8.10899660e-02, 0., 9.65815932e-02, 0.,
          4.12665233e-02, 0., 2.81878442e-01, 1.66170716e-01, 0.,
          4.73345034e-02, 0., 0., 0., 1.22698367e-01, 3.38184118e-01,
          1.38387755e-01, 4.39228639e-02, 0., 6.53476641e-02, 0., 0.,
          1.21256821e-01, 1.90510452e-01, 1.52046412e-01, 6.65604919e-02,
          3.54150757e-02, 8.56570154e-02, 3.37951668e-02, 2.83017606e-02,
          3.53480935e-01, 1.25987351e-01, 0., 0., 0., 9.97663140e-02,
          1.21682905e-01, 1.46505445e-01, 1.11635305e-01, 1.61841318e-01,
          1.28391966e-01, 2.24596754e-01, 9.53278318e-02, 1.32966965e-01,
          1.07410349e-01, 0., 0., 1.58594728e-01, 1.30167842e-01,
          7.13720396e-02, 1.15332782e-01 ]
      - [ 3.49038213e-01, 1.40921086e-01, 7.24609420e-02, 0.,
          1.12432070e-01, 9.63300839e-02, 1.51850805e-01, 2.52646893e-01,
          1.06629543e-01, 0., 0., 0., 0., 0., 0., 0., 2.09356412e-01,
          8.20289329e-02, 0., 0., 7.71309212e-02, 5.71536310e-02, 0., 0.,
          3.12428549e-02, 0., 2.85902649e-01, 1.69325441e-01,
          1.45126134e-01, 1.16732970e-01, 1.05423689e-01, 8.36862922e-02,
          2.59571970e-01, 1.95076704e-01, 1.24439500e-01, 1.25035584e-01,
          3.37229855e-02, 4.49284427e-02, 0., 1.70519188e-01,
          2.83709109e-01, 0., 0., 0., 6.41743466e-02, 0., 0., 0.,
          1.27126932e-01, 0., 0., 0., 2.87863687e-02, 0., 0.,
          2.65684456e-01, 2.01141179e-01, 9.11401436e-02, 6.22812621e-02,
          1.24299735e-01, 9.25713927e-02, 1.14280455e-01, 1.37345523e-01,
          2.43633285e-01 ]
      - [ 2.32040808e-01, 2.04238817e-01, 0., 0., 3.99505161e-02, 0.,
          1.66919440e-01, 1.67521596e-01, 1.32519320e-01, 1.47940293e-01,
          1.23254888e-01, 1.12397507e-01, 3.56770717e-02, 0.,
          1.23781994e-01, 1.95031956e-01, 1.69672206e-01, 1.29972965e-01,
          1.39267728e-01, 1.45885348e-01, 7.76464939e-02, 1.23505607e-01,
          8.67686048e-02, 0., 3.28558125e-02, 0., 0., 0., 2.42595747e-02,
          1.74983755e-01, 2.37904176e-01, 1.15649328e-01, 1.80465609e-01,
          0., 2.76930425e-02, 0., 5.90062775e-02, 0., 1.88454956e-01,
          2.41998926e-01, 2.10490555e-01, 0., 0., 0., 1.41086519e-01,
          1.12800591e-01, 1.13280460e-01, 1.86118200e-01, 4.80054431e-02,
          1.03007942e-01, 1.32392690e-01, 1.16921544e-01, 1.23793818e-01,
          0., 0., 7.18987733e-02, 2.63659835e-01, 2.87224561e-01,
          1.48358956e-01, 0., 3.72354612e-02, 4.30147313e-02,
          7.77013972e-02, 6.61438629e-02 ]
      - [ 1.98026657e-01, 3.27223301e-01, 4.14236486e-02, 5.01048341e-02,
          1.15545526e-01, 0., 2.97443960e-02, 4.66994531e-02,
          2.82552510e-01, 2.17906460e-01, 0., 0., 0., 0., 0., 0.,
          2.20666826e-01, 1.67829096e-01, 6.78370744e-02, 8.54007825e-02,
          1.62831277e-01, 1.10744387e-01, 1.13561653e-01, 1.00427531e-01,
          1.37497813e-01, 1.14705324e-01, 0., 0., 1.95525005e-01,
          1.68011203e-01, 6.33101761e-02, 0., 1.33036003e-02,
          2.31586456e-01, 1.84342697e-01, 1.41605631e-01, 2.29864642e-01,
          1.67235747e-01, 8.02605525e-02, 6.22265898e-02, 1.25260770e-01,
          4.07576971e-02, 8.10279250e-02, 0., 8.26960355e-02,
          4.16912399e-02, 6.20858409e-02, 0., 1.34886280e-01,
          1.42891109e-01, 5.93237169e-02, 2.79525071e-02, 9.53160524e-02,
          7.61130974e-02, 3.87525074e-02, 8.32880363e-02, 1.83529273e-01,
          1.64706632e-01, 2.41774574e-01, 7.25513324e-02, 1.37793064e-01,
          0., 5.35921343e-02, 6.90892637e-02 ]
      - [ 1.91577271e-01, 1.95077419e-01, 1.98663503e-01, 1.46224067e-01,
          5.66654801e-02, 0., 0., 0., 0., 0., 3.10985949e-02,
          1.88479468e-01, 2.19737843e-01, 1.68095037e-01, 1.17412932e-01,
          1.13353975e-01, 3.01611364e-01, 1.77602887e-01, 7.48328269e-02,
          7.82426521e-02, 1.03557840e-01, 5.89208826e-02, 0., 0.,
          1.05596939e-02, 0., 0., 4.27085012e-02, 8.52409229e-02,
          6.27402291e-02, 1.60297766e-01, 1.93498790e-01, 8.03551972e-02,
          9.47464108e-02, 1.49612889e-01, 3.89646664e-02, 9.04730856e-02,
          1.09413892e-01, 1.64049655e-01, 2.17974797e-01, 2.62381673e-01,
          1.07551433e-01, 0., 0., 1.28053755e-01, 7.89340883e-02,
          8.12556669e-02, 7.35307261e-02, 4.08677794e-02, 6.08907528e-02,
          7.53894821e-02, 6.91998377e-02, 4.37371619e-02, 0.,
          7.66957700e-02, 1.86489046e-01, 2.25152686e-01, 2.57796258e-01,
          2.16001809e-01, 0., 1.02384776e-01, 8.94679800e-02,
          7.03257248e-02, 4.66709100e-02 ]
      - [ 3.90285343e-01, 5.35032637e-02, 5.43200374e-02, 3.71292271e-02,
          0., 0., 0., 0., 0., 0., 0., 0., 0., 5.35954461e-02, 0.,
          1.62225917e-01, 1.79802358e-01, 1.29171565e-01, 6.84571415e-02,
          1.42856494e-01, 2.18696266e-01, 1.50213569e-01, 1.64923631e-02,
          0., 0., 0., 0., 1.46579504e-01, 2.12390237e-02, 1.25268012e-01,
          1.87030897e-01, 1.33223698e-01, 0., 0., 0., 0., 1.51146442e-01,
          1.81638911e-01, 2.30771035e-01, 1.64174229e-01, 2.18926013e-01,
          2.04865485e-01, 1.18306629e-01, 0., 0., 8.07738677e-02, 0., 0.,
          1.79116771e-01, 1.57577336e-01, 1.01616248e-01, 1.59369409e-01,
          2.95238458e-02, 0., 0., 2.61074662e-01, 2.69227445e-01,
          1.43268049e-01, 1.48261547e-01, 1.03347905e-01, 7.28138536e-02,
          0., 1.02991007e-01, 1.62633196e-01 ]
      - [ 2.33301744e-01, 2.19962791e-01, 1.10781796e-01, 1.07663810e-01,
          7.38610700e-02, 1.22043759e-01, 7.02094957e-02, 0.,
          1.12600595e-01, 6.36626184e-02, 8.31625536e-02, 1.30583271e-01,
          1.23262666e-01, 1.17200956e-01, 1.66925281e-01, 1.69391766e-01,
          2.10707769e-01, 2.35127285e-01, 1.55988351e-01, 0.,
          7.59218959e-03, 0., 0., 0., 3.32738683e-02, 0., 0.,
          4.80694361e-02, 1.95891559e-01, 2.12316558e-01, 1.29371792e-01,
          1.47494152e-01, 7.76069313e-02, 1.11388996e-01, 0.,
          8.78460556e-02, 1.78005025e-01, 1.42315537e-01, 1.77071899e-01,
          9.20165330e-02, 2.93658197e-01, 2.21497536e-01, 0.,
          3.19569632e-02, 7.38665834e-02, 0., 7.90590271e-02, 0.,
          5.66858388e-02, 2.93971561e-02, 0., 0., 0., 0., 0., 0.,
          3.72191787e-01, 2.33062446e-01, 0., 3.92203517e-02,
          1.23296240e-02, 0., 6.13736175e-02, 6.41118363e-02 ]
      - [ 1.84384540e-01, 1.97329387e-01, 2.41121426e-01, 0.,
          4.27603237e-02, 0., 0., 0., 0., 5.82011230e-02, 2.51190782e-01,
          1.50398642e-01, 8.00433084e-02, 1.07224688e-01, 1.32539660e-01,
          1.08068205e-01, 1.96037814e-01, 1.80302471e-01, 1.37052163e-01,
          1.33047372e-01, 2.29064554e-01, 7.59665519e-02, 2.69556306e-02,
          4.65787612e-02, 0., 5.00767641e-02, 0., 5.55347465e-02,
          5.86574301e-02, 5.37541583e-02, 1.41936257e-01, 1.29205897e-01,
          7.91712403e-02, 0., 0., 4.70289066e-02, 5.13633676e-02, 0.,
          2.49403924e-01, 2.70405769e-01, 1.45236060e-01, 5.00565022e-02,
          2.95875967e-02, 1.43262506e-01, 7.99496993e-02, 8.20964724e-02,
          1.34324387e-01, 1.81029931e-01, 1.82517782e-01, 1.22064233e-01,
          1.12754591e-01, 1.28307596e-01, 1.39137164e-01, 2.85734683e-02,
          1.30028561e-01, 1.61244497e-01, 3.17282200e-01, 3.13871652e-02,
          5.27259819e-02, 9.59893093e-02, 6.33542091e-02, 0., 0., 0. ]
      - [ 1.91698700e-01, 1.88751191e-01, 1.52797803e-01, 2.35523447e-01,
          6.77664652e-02, 5.93386665e-02, 0., 0., 5.42493500e-02, 0., 0.,
          1.81681201e-01, 1.69833660e-01, 8.13895240e-02, 1.30410463e-01,
          1.28414080e-01, 2.08754063e-01, 1.19917192e-01, 1.11238368e-01,
          1.59827277e-01, 1.60093099e-01, 0., 0., 0., 2.05579624e-02, 0.,
          0., 1.65102273e-01, 1.91971973e-01, 1.37697101e-01,
          1.28046528e-01, 1.51675105e-01, 9.56949145e-02, 7.18478933e-02,
          1.40919134e-01, 1.97206046e-02, 8.55566338e-02, 2.37020820e-01,
          1.72132477e-01, 1.36640370e-01, 2.06445649e-01, 2.05311254e-01,
          0., 0., 9.54167545e-02, 9.86900777e-02, 7.50484765e-02,
          5.53685129e-02, 7.73785785e-02, 1.20268151e-01, 7.47764781e-02,
          0., 1.57195199e-02, 0., 0., 2.02053204e-01, 2.99267381e-01,
          1.83846325e-01, 1.00203156e-01, 0., 8.25584084e-02,
          1.07439362e-01, 8.12943056e-02, 8.49020705e-02 ]
      - [ 1.37189984e-01, 7.85598680e-02, 1.34642705e-01, 1.73974216e-01,
          2.54209220e-01, 0., 0., 0., 7.40891397e-02, 0., 0., 0.,
          1.96828648e-01, 2.17637390e-01, 1.46220759e-01, 9.39285383e-02,
          2.31463179e-01, 1.91454306e-01, 0., 4.36250828e-02,
          8.88548121e-02, 0., 0., 0., 6.28299862e-02, 6.32323176e-02, 0.,
          0., 2.34629571e-01, 1.79988801e-01, 1.05873033e-01,
          1.50887266e-01, 8.08692724e-02, 9.05574560e-02, 8.41811672e-02,
          1.06021307e-01, 1.17152140e-01, 2.87509114e-01, 1.82506904e-01,
          1.85483754e-01, 1.77726075e-01, 0., 0., 0., 2.83797737e-02,
          2.03175932e-01, 1.05508745e-01, 7.11206868e-02, 5.10806739e-02,
          0., 3.44047584e-02, 1.05600476e-01, 8.14259052e-02, 0., 0., 0.,
          1.49902150e-01, 4.01929736e-01, 8.08011070e-02, 0.,
          7.56672621e-02, 0., 6.36303052e-02, 4.32085544e-02 ]
      - [ 2.19915107e-01, 1.90438777e-01, 6.77721351e-02, 0.,
          1.17280796e-01, 0., 0., 0., 3.88732329e-02, 0., 1.64755300e-01,
          2.46812329e-01, 1.81861371e-01, 1.26323134e-01, 1.65199384e-01,
          1.32363990e-01, 3.69284451e-01, 1.67086899e-01, 0., 0.,
          7.77426118e-04, 0., 0., 0., 0., 0., 0., 0., 5.20854443e-02,
          1.87055431e-02, 5.74298901e-03, 1.52011693e-01, 1.41755879e-01,
          1.71002433e-01, 0., 9.69190970e-02, 6.20633848e-02, 0.,
          6.77075163e-02, 1.25095740e-01, 3.95910472e-01, 7.26870522e-02,
          3.65995429e-02, 0., 1.30709127e-01, 5.54585271e-02,
          1.30057931e-01, 1.03496619e-01, 1.28755286e-01, 4.29340266e-02,
          0., 0., 0., 0., 0., 1.94876995e-02, 3.33669007e-01,
          3.14306796e-01, 0., 0., 1.48577793e-02, 0., 0., 0. ]
      - [ 2.53520310e-01, 2.09458262e-01, 1.15674607e-01, 0.,
          3.34237441e-02, 4.57499661e-02, 0., 6.21786304e-02,
          1.83148831e-01, 1.01871110e-01, 1.47732288e-01, 1.51255831e-01,
          3.31845544e-02, 8.13881010e-02, 1.48771182e-01, 1.64403170e-01,
          1.92222774e-01, 2.67851382e-01, 1.74813822e-01, 0.,
          3.75179537e-02, 6.94600567e-02, 8.95048380e-02, 6.34519309e-02,
          9.38275084e-02, 7.00003207e-02, 1.72837973e-02, 0.,
          6.20182902e-02, 1.82237744e-01, 1.46250635e-01, 1.07743062e-01,
          1.27512276e-01, 1.67161673e-01, 0., 0., 2.11719051e-02,
          5.15700132e-02, 1.45870149e-01, 1.43234447e-01, 2.48958185e-01,
          2.59469390e-01, 0., 0., 1.16461717e-01, 1.06302351e-01,
          4.69603278e-02, 1.04120955e-01, 0., 0., 0., 1.82627365e-01,
          1.92649812e-01, 1.01680778e-01, 1.45999819e-01, 1.07938521e-01,
          1.93811789e-01, 2.69669890e-01, 6.03277646e-02, 0.,
          1.70547217e-02, 0., 0., 0. ]
      - [ 1.43523276e-01, 1.02658331e-01, 6.93239197e-02, 0.,
          2.06981137e-01, 8.61567035e-02, 5.31736277e-02, 3.24788503e-02,
          9.47290435e-02, 6.83226809e-02, 4.89840098e-02, 2.72704780e-01,
          1.61586314e-01, 1.32484794e-01, 8.87104571e-02, 7.18551725e-02,
          1.45215318e-01, 1.40245050e-01, 5.40255532e-02, 2.18263105e-01,
          1.66898459e-01, 1.41965970e-01, 1.62075058e-01, 1.31329253e-01,
          3.22790667e-02, 0., 6.71402887e-02, 1.18302345e-01,
          8.44674632e-02, 6.52292892e-02, 1.27632096e-01, 9.76941139e-02,
          9.98968333e-02, 2.77374908e-02, 1.11620985e-01, 1.41877294e-01,
          1.49824992e-01, 5.50029986e-02, 1.71955928e-01, 1.16872191e-01,
          1.75567582e-01, 1.30631298e-01, 0., 1.96204811e-01,
          1.95309579e-01, 0., 1.06011473e-01, 1.12909809e-01,
          1.66282237e-01, 1.98370278e-01, 1.90828741e-01, 1.49953529e-01,
          0., 0., 0., 0., 1.64046183e-01, 2.25512117e-01, 1.86904207e-01,
          6.73256144e-02, 1.33242249e-01, 0., 0., 4.18824963e-02 ]
      - [ 7.20200613e-02, 1.03382647e-01, 1.32739291e-01, 1.13944151e-01,
          2.52836227e-01, 1.73721120e-01, 7.92227760e-02, 0.,
          1.79685757e-01, 1.42148674e-01, 1.52077466e-01, 1.57183066e-01,
          4.38901670e-02, 0., 0., 6.21346757e-02, 9.99269709e-02,
          3.08283456e-02, 5.31926565e-02, 1.77494198e-01, 1.27170101e-01,
          1.21446021e-01, 9.69862863e-02, 1.55735821e-01, 0., 0.,
          2.45713852e-02, 0., 2.22644433e-01, 2.53151298e-01,
          1.96636111e-01, 0., 2.05959514e-01, 2.13809893e-01,
          7.79268295e-02, 6.94775805e-02, 1.51773632e-01, 1.75662994e-01,
          1.25549033e-01, 8.07885900e-02, 1.28134295e-01, 7.28764087e-02,
          4.75940853e-02, 0., 3.46651115e-02, 0., 2.31127758e-02,
          1.82669491e-01, 0., 2.00710058e-01, 1.44940332e-01,
          6.39271215e-02, 0., 0., 0., 0., 1.00468650e-01, 2.51670092e-01,
          2.63972849e-01, 1.54751256e-01, 1.31730884e-01, 0.,
          1.19258668e-02, 0. ]
      - [ 1.57507703e-01, 3.34256500e-01, 7.88423046e-02, 0.,
          1.28897995e-01, 6.02191947e-02, 0., 5.95067590e-02,
          5.17313667e-02, 2.95455337e-01, 1.06678568e-01, 0., 0., 0., 0.,
          0., 1.62165254e-01, 0., 0., 0., 2.37907976e-01, 1.19721256e-01,
          1.03245333e-01, 1.36948943e-01, 1.92742750e-01, 1.30138636e-01,
          0., 0., 1.25876084e-01, 1.65461585e-01, 1.09904043e-01,
          5.67706786e-02, 4.81085666e-02, 5.25813326e-02, 0., 0.,
          1.34616062e-01, 2.95171347e-02, 3.33961070e-01, 7.40766525e-02,
          1.33488253e-01, 0., 0., 0., 0., 1.31501839e-01, 2.94012636e-01,
          0., 1.25572234e-01, 9.34514701e-02, 1.59190297e-01,
          1.88968480e-01, 1.44890517e-01, 3.71725671e-02, 0.,
          7.50969797e-02, 1.51718050e-01, 8.09933767e-02, 1.33231118e-01,
          8.91299844e-02, 1.13921635e-01, 1.66828260e-02, 1.57220051e-01,
          1.52973473e-01 ]
      - [ 3.14390868e-01, 3.20803136e-01, 8.71446058e-02, 0.,
          2.36565415e-02, 0., 0., 0., 1.25544593e-01, 1.08504176e-01,
          4.73645851e-02, 0., 0., 0., 0., 0., 2.08289847e-01,
          1.28362346e-02, 0., 5.64007983e-02, 7.10393637e-02, 0.,
          9.10624340e-02, 1.03393495e-01, 1.83624402e-01, 7.33391643e-02,
          0., 0., 2.34589372e-02, 1.17284484e-01, 2.06562445e-01,
          3.03054184e-01, 5.33463843e-02, 4.68339436e-02, 7.77408108e-02,
          0., 2.15670504e-02, 6.32575378e-02, 8.52934197e-02,
          3.86563927e-01, 1.62172228e-01, 0., 0., 1.17942430e-01,
          4.62613627e-02, 6.11239336e-02, 7.23063797e-02, 8.12947676e-02,
          2.21349180e-01, 1.02221414e-01, 1.10932074e-01, 0.,
          1.47844516e-02, 0., 0., 2.16985747e-01, 3.52205932e-01,
          1.46933824e-01, 0., 4.64095958e-02, 2.48749554e-02, 0.,
          4.44933288e-02, 4.49143164e-02 ]
      - [ 1.79638386e-01, 1.05772667e-01, 1.29874691e-01, 1.02650762e-01,
          1.15965292e-01, 1.09763756e-01, 1.28386796e-01, 0.,
          4.10065055e-02, 0., 5.34480065e-02, 1.53886646e-01,
          1.23239569e-01, 1.30546361e-01, 1.12908944e-01, 1.38341144e-01,
          1.57967731e-01, 0., 0., 5.91713302e-02, 8.60673934e-02,
          1.16407454e-01, 1.71158865e-01, 1.74753219e-01, 1.91703010e-02,
          0., 0., 0., 4.87273037e-02, 1.19625963e-01, 2.11736321e-01,
          2.98374832e-01, 1.42689332e-01, 0., 0., 2.41801217e-02,
          5.99477328e-02, 1.32864490e-01, 2.68199980e-01, 2.45111391e-01,
          1.34614572e-01, 0., 0., 0., 0., 6.78398609e-02, 1.13732554e-01,
          2.29361907e-01, 2.24472672e-01, 1.67853534e-01, 1.05129644e-01,
          0., 0., 1.91634782e-02, 0., 0., 3.97487521e-01, 1.21142291e-01,
          6.29635081e-02, 4.34707440e-02, 4.37002331e-02, 4.21541072e-02,
          0., 0. ]
      - [ 1.02564558e-01, 3.04772139e-01, 2.37060934e-01, 0.,
          8.20318758e-02, 0., 0., 0., 0., 2.63621718e-01, 8.63515213e-02,
          0., 0., 0., 0., 0., 2.30957761e-01, 5.33258766e-02,
          1.12073593e-01, 2.73517489e-01, 1.61856905e-01, 1.20437883e-01,
          1.22458406e-01, 1.50284588e-01, 1.51901171e-01, 1.45150214e-01,
          0., 0., 1.03819244e-01, 0., 1.84215382e-01, 1.22538552e-01,
          7.06847012e-02, 0., 6.80317357e-02, 5.21245934e-02,
          5.57672381e-02, 0., 0., 0., 1.23925075e-01, 1.33733287e-01,
          2.67635971e-01, 0., 1.25853326e-02, 0., 0., 0., 5.45442961e-02,
          0., 5.25663681e-02, 3.35764945e-01, 1.65866122e-01,
          1.41089484e-01, 1.01774864e-01, 1.27268717e-01, 1.62897080e-01,
          1.43025801e-01, 2.20778495e-01, 5.35279848e-02, 1.39533207e-01,
          0., 0., 0. ]
      - [ 4.01450247e-01, 1.90624774e-01, 0., 0., 0., 0., 0.,
          6.78861365e-02, 5.51426932e-02, 0., 0., 0., 0., 0., 0.,
          2.58256167e-01, 1.50961265e-01, 7.57201982e-04, 0., 0., 0., 0.,
          0., 0., 0., 0., 3.32629308e-02, 0., 0., 3.35312039e-02,
          1.34733811e-01, 4.42727685e-01, 1.78931691e-02, 0., 0., 0., 0.,
          5.66958450e-02, 0., 2.48695895e-01, 3.86407226e-01,
          2.05709144e-01, 2.68551405e-03, 0., 0., 0., 0., 0., 0., 0., 0.,
          0., 0., 0., 5.59575716e-03, 4.13559556e-01, 2.38858312e-01, 0.,
          6.19550385e-02, 0., 0., 0., 0., 0. ]
      - [ 2.61992931e-01, 1.81479514e-01, 0., 0., 3.05768568e-02, 0.,
          9.77926776e-02, 4.22773361e-02, 1.03476994e-01, 0.,
          1.14822581e-01, 1.76510990e-01, 2.06754476e-01, 1.80302054e-01,
          1.41076803e-01, 1.43147290e-01, 2.94494838e-01, 3.21996838e-01,
          0., 0., 0., 0., 0., 0., 1.38002291e-01, 9.97018889e-02, 0.,
          4.22183834e-02, 3.10876337e-03, 9.55533609e-03, 9.53275152e-03,
          0., 1.20425060e-01, 1.06122039e-01, 0., 0., 2.43660823e-01,
          1.85976729e-01, 1.67144373e-01, 1.25158593e-01, 2.09405065e-01,
          2.68595964e-01, 5.20023219e-02, 0., 6.19718619e-02,
          8.98399055e-02, 1.12627827e-01, 8.59177336e-02, 3.33823785e-02,
          7.71347955e-02, 0., 0., 0., 0., 0., 0., 1.41071275e-01,
          3.91248643e-01, 0., 0., 5.56097645e-03, 0., 0., 0. ]
      - [ 2.57875085e-01, 1.14237614e-01, 0., 6.34840056e-02,
          1.63615763e-01, 9.85727757e-02, 1.46402633e-02, 9.30782184e-02,
          7.40168765e-02, 1.06428057e-01, 1.54009297e-01, 1.96387649e-01,
          6.18000999e-02, 0., 7.23757744e-02, 1.44249827e-01,
          1.47826850e-01, 7.69015849e-02, 9.29962769e-02, 2.07589820e-01,
          2.22670540e-01, 1.17748767e-01, 0., 0., 5.12528270e-02,
          5.76713867e-02, 1.70623392e-01, 1.57696351e-01, 1.12453997e-01,
          8.71369019e-02, 1.30362049e-01, 9.46688354e-02, 2.22892221e-02,
          0., 0., 1.08178042e-01, 1.84922382e-01, 1.56421453e-01,
          1.50386617e-01, 1.03906073e-01, 1.43066898e-01, 1.28195927e-01,
          1.22808486e-01, 2.00719267e-01, 1.94595635e-01, 1.03460923e-01,
          1.06156617e-01, 0., 1.40190065e-01, 1.36863187e-01,
          2.04169214e-01, 9.31994244e-02, 7.19814328e-03, 0., 0.,
          8.42374787e-02, 2.19912052e-01, 1.59312919e-01, 2.22682714e-01,
          6.98192865e-02, 1.20342709e-01, 0., 7.16942251e-02,
          1.13551438e-01 ]
      - [ 1.33945182e-01, 8.00031275e-02, 1.88794360e-01, 2.70117670e-01,
          2.59935021e-01, 7.83786252e-02, 0., 0., 5.32596894e-02, 0., 0.,
          1.45433009e-01, 2.54704893e-01, 6.09497353e-02, 1.31915987e-01,
          0., 0., 0., 1.80325910e-01, 2.10339651e-01, 1.37980103e-01, 0.,
          0., 0., 5.72154000e-02, 0., 3.17380667e-01, 2.78930724e-01,
          1.41642869e-01, 4.15407158e-02, 0., 0., 0., 0., 0., 0.,
          2.27414206e-01, 1.95231125e-01, 2.02195346e-01, 2.14057267e-01,
          3.97216380e-02, 0., 0., 0., 0., 0., 0., 0., 0., 0., 0., 0.,
          1.94588244e-01, 6.83897734e-02, 5.29749431e-02, 0., 0.,
          5.80221377e-02, 5.05494401e-02, 3.72493476e-01, 1.25836387e-01,
          0., 0., 0. ]
      - [ 2.46996716e-01, 2.66277403e-01, 1.41461305e-02, 0.,
          4.36570123e-02, 0., 0., 0., 1.42663136e-01, 1.78191468e-01,
          1.23244584e-01, 1.00832790e-01, 1.57410666e-01, 9.03354362e-02,
          1.26526535e-01, 1.56460732e-01, 1.44151121e-01, 2.28112176e-01,
          2.88737148e-01, 1.18384056e-01, 1.81808785e-01, 1.02306865e-01,
          6.16330318e-02, 8.20367187e-02, 5.39246090e-02, 1.22230835e-01,
          1.44979447e-01, 2.49117147e-02, 4.89142872e-02, 4.83163856e-02,
          3.51524018e-02, 0., 1.57101050e-01, 5.78760728e-02, 0., 0.,
          2.38181953e-03, 0., 6.97818398e-02, 2.41062224e-01,
          2.96231061e-01, 1.30462736e-01, 0., 0., 2.59951153e-03,
          4.47870083e-02, 8.97876471e-02, 1.04426250e-01, 0., 0., 0.,
          1.15310259e-01, 3.30590278e-01, 1.26146689e-01, 8.27190429e-02,
          3.10391169e-02, 1.11042410e-01, 2.64544189e-01, 2.48459447e-03,
          0., 4.27693099e-04, 0., 0., 0. ]
      - [ 1.77079126e-01, 2.07000956e-01, 2.54915625e-01, 7.41853639e-02,
          9.92270485e-02, 0., 0., 0., 0., 0., 1.09149247e-01,
          1.61693916e-01, 1.43203110e-01, 7.58271441e-02, 1.23841956e-01,
          5.31727225e-02, 1.64476618e-01, 1.07377857e-01, 1.03608333e-01,
          2.63520747e-01, 1.33058980e-01, 0., 0., 0., 5.37467822e-02, 0.,
          1.60078689e-01, 2.27551818e-01, 1.40924007e-01, 1.03525765e-01,
          7.37753659e-02, 8.11653212e-02, 1.36785759e-02, 0.,
          9.48604122e-02, 6.73980042e-02, 9.57814753e-02, 0.,
          2.41611928e-01, 2.31932476e-01, 1.79306805e-01, 3.24182250e-02,
          1.26772001e-01, 1.42338574e-01, 9.63144824e-02, 1.22793607e-01,
          1.16148010e-01, 0., 1.42101929e-01, 1.36463270e-01,
          1.57320276e-01, 1.62288383e-01, 3.63310985e-02, 0., 0.,
          9.29018855e-02, 1.77648813e-01, 2.13071689e-01, 2.12118596e-01,
          1.06962055e-01, 1.02619655e-01, 0., 6.60559908e-02,
          1.14128418e-01 ]
      - [ 2.48987541e-01, 1.16301969e-01, 1.53870523e-01, 0.,
          2.70471182e-02, 4.92312461e-02, 0., 6.67935759e-02,
          2.69679874e-02, 7.10710436e-02, 7.07255602e-02, 0.,
          3.17815877e-02, 0., 2.34316424e-01, 1.72827795e-01,
          1.82158738e-01, 1.42821297e-01, 1.83882520e-01, 1.19826935e-01,
          1.31767169e-01, 1.06750146e-01, 6.76878244e-02, 0.,
          4.09540199e-02, 1.40201509e-01, 1.63889408e-01, 5.15088737e-02,
          6.80894703e-02, 2.03800812e-01, 1.74951464e-01, 1.18302681e-01,
          1.01156116e-01, 8.24195147e-02, 7.51185492e-02, 9.20054018e-02,
          9.62543339e-02, 7.55324736e-02, 1.33229762e-01, 2.39705682e-01,
          3.03667098e-01, 0., 3.26438174e-02, 9.00621563e-02,
          4.55147475e-02, 7.04288185e-02, 5.55163585e-02, 0.,
          9.00149792e-02, 8.17937255e-02, 1.41392305e-01, 1.27445966e-01,
          1.39987990e-01, 0., 2.06519544e-01, 2.17098728e-01,
          1.78244144e-01, 1.37691051e-01, 7.04844743e-02, 1.51123971e-01,
          9.95860770e-02, 1.06392369e-01, 1.19397931e-01, 1.12510219e-01 ]
      - [ 2.62779653e-01, 1.80648074e-01, 1.83244482e-01, 1.48788899e-01,
          3.54205519e-02, 0., 0., 0., 0., 0., 0., 0., 5.95280528e-02,
          1.50704488e-01, 1.72350481e-01, 1.74725875e-01, 2.13236585e-01,
          1.62443995e-01, 1.05547629e-01, 5.29409349e-02, 1.05674028e-01,
          1.37314260e-01, 0., 3.55347805e-02, 0., 5.41446097e-02,
          5.98306879e-02, 1.11699529e-01, 1.55765101e-01, 1.52921245e-01,
          2.03785315e-01, 1.86325267e-01, 7.79677108e-02, 0.,
          6.44454286e-02, 7.12378547e-02, 6.48417249e-02, 5.82458153e-02,
          2.93434471e-01, 2.23582655e-01, 2.57411271e-01, 0., 0., 0.,
          3.59608717e-02, 9.53614563e-02, 0., 0., 2.71975491e-02,
          8.66613761e-02, 9.86052155e-02, 1.32305428e-01, 7.92889819e-02,
          0., 1.58563331e-01, 2.29213595e-01, 2.01877549e-01,
          1.89583689e-01, 1.18205957e-01, 1.33742064e-01, 1.30426556e-01,
          8.80468786e-02, 6.52576163e-02, 4.70874049e-02 ]
      - [ 2.75512934e-01, 1.75460234e-01, 5.99026084e-02, 0.,
          1.56796530e-01, 8.70200992e-02, 6.50701597e-02, 9.50805247e-02,
          2.86806338e-02, 0., 1.52638271e-01, 1.02077268e-01,
          1.88052505e-01, 1.51935235e-01, 1.38348714e-01, 1.37532279e-01,
          1.94206119e-01, 1.34942800e-01, 2.47926682e-01, 1.41451910e-01,
          1.57501437e-02, 0., 0., 0., 6.62412941e-02, 0., 5.40735349e-02,
          0., 2.18214467e-01, 1.58075333e-01, 0., 4.08617370e-02,
          1.81580614e-02, 0., 0., 0., 9.36929509e-02, 2.23559067e-01,
          1.98056892e-01, 4.27717343e-02, 1.52798563e-01, 1.14725389e-01,
          1.26191780e-01, 3.07234824e-01, 8.50661173e-02, 0., 0., 0.,
          1.15967877e-01, 1.10325992e-01, 7.32527524e-02, 0.,
          6.02778373e-03, 0., 1.03218436e-01, 1.83562756e-01,
          2.03658238e-01, 2.83678979e-01, 1.26148671e-01, 3.80919948e-02,
          1.13418195e-02, 8.65400806e-02, 1.32265508e-01, 0. ]
      - [ 2.15731412e-01, 2.63174325e-01, 5.38759045e-02, 0.,
          7.35239014e-02, 0., 1.01157770e-01, 1.59602821e-01,
          1.30651489e-01, 1.49805367e-01, 1.57325536e-01, 6.78906292e-02,
          3.38549800e-02, 0., 0., 1.77857444e-01, 1.48506433e-01, 0., 0.,
          0., 9.43420455e-02, 8.90295729e-02, 1.80045143e-01,
          7.96542466e-02, 1.39044493e-01, 0., 2.25569811e-02, 0.,
          7.07827285e-02, 1.38833225e-01, 2.32693613e-01, 2.53596604e-01,
          1.89204216e-01, 0., 0., 0., 8.05871710e-02, 8.19748491e-02,
          1.99135005e-01, 2.02987850e-01, 2.17974648e-01, 0., 0.,
          1.12869985e-01, 1.06529973e-01, 9.68511850e-02, 1.43338472e-01,
          1.46543220e-01, 1.93281651e-01, 1.55163780e-01, 8.98755416e-02,
          1.11437939e-01, 0., 5.55535592e-02, 5.80384769e-02,
          4.41774353e-02, 3.24470401e-01, 1.79152668e-01, 1.00019030e-01,
          4.24317047e-02, 7.02833980e-02, 3.12565714e-02, 0., 0. ]
      - [ 1.24914609e-01, 4.23097581e-01, 0., 0., 8.46861489e-03, 0., 0.,
          0., 0., 1.39061019e-01, 0., 0., 0., 0., 0., 0., 3.74724686e-01,
          8.14756230e-02, 1.07994519e-01, 4.96055745e-02, 1.07353896e-01,
          3.98211256e-02, 1.01303488e-01, 0., 1.87594280e-01,
          1.99223191e-01, 0., 0., 2.50206571e-02, 0., 1.22194327e-01,
          1.82765529e-01, 1.24868918e-02, 0., 0., 6.77393377e-02,
          5.00560999e-02, 3.91199701e-02, 9.07524973e-02, 1.80279568e-01,
          2.54960865e-01, 2.49730647e-01, 0., 0., 0., 0., 0., 0., 0.,
          1.75144136e-01, 1.68089166e-01, 1.60603940e-01, 1.48352265e-01,
          1.67949200e-01, 9.99352336e-02, 1.52721390e-01, 2.45469138e-01,
          1.99942648e-01, 1.50444254e-01, 7.45091513e-02, 2.87625808e-02,
          0., 3.98070328e-02, 4.01672497e-02 ]
      - [ 1.58137828e-01, 1.22959957e-01, 1.86621457e-01, 1.18693620e-01,
          1.30712450e-01, 2.17778012e-02, 0., 1.93993121e-01,
          1.45392805e-01, 1.62209839e-01, 1.72849491e-01, 1.16539881e-01,
          2.09230967e-02, 0., 0., 9.04134512e-02, 1.35260001e-01, 0., 0.,
          1.95341021e-01, 1.75011426e-01, 1.07698672e-01, 1.01383545e-01,
          1.43358931e-01, 1.07283339e-01, 1.65273890e-01, 1.18500695e-01,
          6.79156929e-02, 1.36690259e-01, 1.46499023e-01, 1.02454282e-01,
          6.02451488e-02, 1.44451663e-01, 0., 0., 1.36326682e-02,
          1.42510429e-01, 1.32352024e-01, 2.35034481e-01, 0.,
          1.40789792e-01, 0., 0., 1.38628528e-01, 1.46295428e-01,
          1.43562242e-01, 1.82262242e-01, 1.44267857e-01, 1.38277695e-01,
          1.65945634e-01, 2.48082250e-01, 1.48938224e-01, 5.32120699e-03,
          0., 0., 3.39892432e-02, 1.49684712e-01, 1.21273875e-01,
          2.19541565e-01, 1.72229543e-01, 1.38669625e-01, 0., 0., 0. ]
      - [ 2.13431299e-01, 2.96086252e-01, 7.44658187e-02, 0.,
          8.28299671e-02, 8.84910896e-02, 0., 4.91144843e-02,
          1.05925493e-01, 1.92321137e-01, 2.24067628e-01, 1.24668546e-01,
          1.18312858e-01, 1.06512904e-01, 1.53978139e-01, 1.09999269e-01,
          3.49902958e-01, 6.02034293e-02, 0., 0., 0., 0., 0., 0., 0., 0.,
          0., 4.52818573e-02, 3.82119529e-02, 3.43373083e-02, 0.,
          7.46941641e-02, 2.65807033e-01, 9.17544588e-02, 8.37885886e-02,
          3.85605358e-02, 8.80655348e-02, 0., 0., 1.49607986e-01,
          3.87300938e-01, 7.36522898e-02, 4.10164259e-02, 1.12228282e-01,
          1.17809221e-01, 4.45150025e-02, 9.82756093e-02, 7.94706270e-02,
          1.96687773e-01, 0., 0., 0., 0., 0., 0., 0., 4.02387798e-01,
          1.13141239e-01, 0., 0., 6.18680660e-03, 0., 0., 0. ]
      - [ 1.02043971e-01, 2.80958205e-01, 1.38400540e-01, 0.,
          1.57545641e-01, 0., 7.65602887e-02, 9.09864604e-02,
          1.42978817e-01, 3.31303328e-01, 0., 0., 0., 0., 0., 0.,
          8.56358185e-02, 1.76187634e-01, 1.67817593e-01, 1.38209909e-01,
          1.68109775e-01, 1.14996284e-01, 1.30542025e-01, 1.16346486e-01,
          1.43669114e-01, 1.47341073e-01, 0., 1.60347402e-01,
          2.19118491e-01, 1.20876402e-01, 4.32422571e-02, 0., 0.,
          1.30297035e-01, 2.47523293e-01, 1.65094495e-01, 2.08368108e-01,
          0., 0., 5.63229583e-02, 7.69333839e-02, 5.31504117e-02, 0., 0.,
          0., 5.12815155e-02, 0., 0., 0., 2.22345427e-01, 1.04128368e-01,
          4.78567295e-02, 5.85327558e-02, 0., 7.75450617e-02,
          5.01810238e-02, 1.20379038e-01, 5.51869385e-02, 3.86221170e-01,
          0., 1.47318393e-01, 5.02508134e-02, 4.70613092e-02,
          3.05366330e-02 ]
      - [ 1.64991289e-01, 1.11073226e-01, 0., 5.05781658e-02,
          9.85676348e-02, 0., 1.14751525e-01, 9.32969600e-02,
          5.85806370e-02, 8.36230889e-02, 8.72532204e-02, 5.56806661e-02,
          8.60591233e-02, 4.34697233e-02, 3.63788277e-01, 1.66731492e-01,
          1.91260025e-01, 1.97962314e-01, 1.69516802e-01, 2.20102370e-01,
          3.58259305e-02, 0., 0., 0., 1.93799939e-02, 0., 0., 0.,
          2.67293137e-02, 0., 2.41902485e-01, 2.05102414e-01,
          2.16486063e-02, 0., 0., 0., 7.79691637e-02, 0., 2.59248257e-01,
          6.99645802e-02, 1.98074669e-01, 9.06023234e-02, 1.96844593e-01,
          2.85102993e-01, 7.54997730e-02, 0., 0., 0., 6.94881082e-02,
          6.17258251e-02, 3.85245048e-02, 0., 2.68957508e-03, 0.,
          2.02940404e-01, 2.53638417e-01, 2.86389500e-01, 1.48554176e-01,
          4.85262536e-02, 0., 1.72584562e-03, 0., 0., 7.67642930e-02 ]
      - [ 2.03579396e-01, 2.46814057e-01, 2.57776350e-01, 7.52316341e-02,
          1.24260806e-01, 0., 1.03715427e-01, 7.89153278e-02,
          6.80579916e-02, 1.20623730e-01, 1.04376778e-01, 5.36318570e-02,
          2.10804865e-02, 0., 0., 1.34160697e-01, 1.91296279e-01, 0., 0.,
          0., 0., 0., 0., 0., 0., 0., 0., 2.62389690e-01, 1.68684065e-01,
          1.55664772e-01, 1.52787164e-01, 1.22620858e-01, 1.28331706e-01,
          0., 1.62295729e-01, 1.08252361e-01, 7.47740567e-02,
          1.02920696e-01, 1.19797915e-01, 1.84144601e-01, 2.42171288e-01,
          2.13468313e-01, 2.75247544e-02, 1.09527580e-01, 1.33019418e-01,
          9.41827744e-02, 1.12265401e-01, 0., 2.47788817e-01, 0., 0., 0.,
          0., 0., 0., 0., 4.17278230e-01, 5.73098995e-02, 0., 0.,
          4.27185707e-02, 7.14097470e-02, 8.67811665e-02, 1.29731178e-01 ]
      - [ 4.81690347e-01, 9.01239365e-02, 3.70613821e-02, 6.43942729e-02,
          0., 0., 0., 0., 0., 0., 0., 0., 0., 0., 0., 0., 4.28051412e-01,
          1.68936569e-02, 1.88601259e-02, 0., 2.56791455e-03, 0., 0., 0.,
          3.38982642e-02, 0., 0., 6.24427982e-02, 3.07646282e-02, 0.,
          6.88323602e-02, 2.39697486e-01, 0., 0., 0., 0., 0., 0.,
          1.28307179e-01, 3.69313717e-01, 3.00618321e-01, 1.47372927e-03,
          0., 0., 0., 0., 0., 0., 0., 0., 0., 0., 0., 0., 1.51178628e-01,
          3.28974366e-01, 2.67370373e-01, 2.01975301e-01, 1.25219226e-01,
          0., 0., 0., 0., 0. ]
      - [ 1.63322970e-01, 1.36625692e-01, 1.77345350e-02, 0.,
          5.82067855e-02, 0., 0., 0., 4.17472646e-02, 0., 8.65509957e-02,
          2.41801053e-01, 2.60926098e-01, 1.39142096e-01, 8.25949162e-02,
          6.56367764e-02, 1.72000900e-01, 1.39748067e-01, 3.44607621e-01,
          0., 3.37738916e-02, 0., 0., 0., 1.08187422e-01, 0.,
          1.35116562e-01, 4.42435108e-02, 0., 0., 0., 0., 1.42800614e-01,
          4.28986512e-02, 0., 0., 1.06189989e-01, 2.34002322e-01,
          2.23964751e-01, 2.00024143e-01, 1.93909362e-01, 0., 0., 0.,
          3.84335406e-02, 2.32475817e-01, 1.67505518e-01, 1.54461011e-01,
          0., 2.00179085e-01, 1.63965628e-01, 0., 0., 1.64804645e-02, 0.,
          0., 9.30840448e-02, 2.75896013e-01, 3.17272782e-01, 0.,
          8.46706778e-02, 0., 2.09067240e-02, 0. ]
      - [ 2.09774122e-01, 1.40548006e-01, 0., 9.81609449e-02,
          7.87190534e-03, 1.39157668e-01, 7.68222734e-02, 1.16310343e-01,
          1.29011199e-01, 0., 0., 0., 1.13705928e-02, 0., 2.64344901e-01,
          2.62901783e-01, 3.63525271e-01, 9.88359749e-02, 0., 0.,
          1.65979797e-03, 0., 0., 0., 0., 0., 0., 1.64480358e-02,
          1.29247783e-03, 5.88724874e-02, 1.32789761e-01, 2.59866118e-01,
          1.79020524e-01, 1.23587318e-01, 1.01508185e-01, 9.24632996e-02,
          3.57271079e-03, 2.98830885e-02, 2.82647274e-02, 2.66356498e-01,
          2.77794927e-01, 2.31503159e-01, 0., 0., 1.36554427e-02, 0., 0.,
          0., 0., 0., 0., 3.11058201e-02, 0., 0., 0., 3.40030998e-01,
          3.11757773e-01, 1.19535327e-01, 3.51453424e-02, 4.25246060e-02,
          1.63256750e-02, 0., 0., 0. ]
      - [ 9.00300369e-02, 7.61404708e-02, 9.97627899e-02, 2.25961432e-01,
          2.64499396e-01, 0., 0., 0., 3.96105880e-03, 0., 0., 0.,
          2.42324635e-01, 1.94497541e-01, 7.13473409e-02, 1.22292742e-01,
          1.51263416e-01, 0., 0., 0., 0., 0., 0., 0., 0., 0., 0., 0.,
          1.47189230e-01, 9.98555496e-02, 4.55734804e-02, 1.69652462e-01,
          2.27814898e-01, 1.92791685e-01, 1.50802791e-01, 1.71898395e-01,
          0., 2.48105433e-02, 0., 9.30035040e-02, 3.88553917e-01,
          9.44184065e-02, 0., 3.65056470e-02, 8.46678615e-02,
          1.06070593e-01, 7.40890726e-02, 4.67136502e-02, 1.94844767e-01,
          0., 0., 0., 1.13708442e-02, 0., 0., 1.86160937e-01,
          3.89497012e-01, 2.99830306e-02, 0., 4.26366627e-02,
          4.58276942e-02, 0., 1.26009300e-01, 2.64667720e-01 ]
      - [ 2.36799136e-01, 2.61364371e-01, 1.04088463e-01, 9.85546783e-02,
          1.42597407e-01, 3.35661322e-02, 0., 0., 5.97784445e-02,
          2.47599036e-01, 1.03173412e-01, 1.25422552e-01, 0., 0., 0.,
          7.83353075e-02, 6.27412051e-02, 5.69391921e-02, 2.90172160e-01,
          5.90902977e-02, 1.21659219e-01, 8.83830860e-02, 5.58145605e-02,
          4.05837819e-02, 1.13816701e-01, 0., 7.75526166e-02,
          2.70389348e-01, 1.62424937e-01, 7.37275854e-02, 0., 0.,
          1.21718451e-01, 1.07703924e-01, 0., 6.45555705e-02,
          7.25297108e-02, 8.21811259e-02, 1.80434480e-01, 1.52350873e-01,
          2.59211689e-01, 1.66307151e-01, 3.62776108e-02, 2.53996532e-02,
          1.37234991e-02, 9.94119421e-02, 9.94840637e-02, 7.28795454e-02,
          0., 0., 0., 2.06199899e-01, 2.65696108e-01, 3.39999124e-02,
          7.43459538e-02, 0., 1.21937931e-01, 1.49000213e-01,
          1.08862989e-01, 2.88265049e-01, 1.33440077e-01, 0., 0., 0. ]
      - [ 1.78478912e-01, 2.24635124e-01, 1.77118033e-01, 1.67964771e-01,
          1.19087890e-01, 5.38245626e-02, 3.62350680e-02, 0., 0., 0.,
          1.15827218e-01, 1.76245719e-01, 7.87198469e-02, 0.,
          1.38214007e-01, 1.47609562e-01, 2.20688611e-01, 1.07002981e-01,
          1.09913707e-01, 2.10218593e-01, 9.01854485e-02, 0., 0., 0.,
          4.37541418e-02, 0., 7.49622062e-02, 2.30960667e-01,
          1.36964813e-01, 1.13132387e-01, 1.45485744e-01, 8.10186043e-02,
          1.14109993e-01, 7.95841888e-02, 1.15056016e-01, 9.19120833e-02,
          3.08242124e-02, 1.11447349e-01, 1.69827595e-01, 2.19351754e-01,
          2.36451522e-01, 1.55099228e-01, 0., 7.73895159e-02,
          1.10060588e-01, 4.26457189e-02, 7.63956383e-02, 8.38722214e-02,
          1.43223241e-01, 1.04577169e-01, 7.79733807e-02, 8.02841485e-02,
          4.19323333e-02, 0., 1.57954723e-01, 1.94030896e-01,
          2.14759484e-01, 1.80238336e-01, 1.48149878e-01, 4.95125093e-02,
          1.25168860e-01, 1.25237107e-01, 1.03598140e-01, 7.66226128e-02 ]
      - [ 1.23475626e-01, 1.37059405e-01, 1.48741335e-01, 3.31626266e-01,
          8.76695365e-02, 0., 0., 0., 0., 0., 7.99761340e-02,
          4.93423268e-02, 1.14484265e-01, 7.62793720e-02, 8.20502937e-02,
          1.05437443e-01, 7.53107900e-03, 0., 1.35674626e-01,
          1.50768265e-01, 1.99547142e-01, 1.20429479e-01, 0.,
          3.98382023e-02, 3.70031819e-02, 8.58100802e-02, 0.,
          2.96636850e-01, 3.36453676e-01, 0., 0., 5.76899089e-02, 0., 0.,
          0., 1.11504875e-01, 2.22291067e-01, 1.27117991e-01,
          1.21906847e-01, 1.30869448e-01, 1.60830021e-01, 1.69307545e-01,
          1.53206721e-01, 0., 0., 0., 0., 0., 0., 0., 0., 2.46867418e-01,
          2.11299524e-01, 9.20752808e-02, 0., 5.57488576e-02,
          1.26832835e-02, 7.83890635e-02, 1.14841618e-01, 3.61762136e-01,
          1.21148162e-01, 0., 0., 0. ]
      - [ 1.81069180e-01, 1.49007916e-01, 1.45628616e-01, 2.80600876e-01,
          6.98977932e-02, 0., 0., 0., 0., 0., 0., 0., 1.23978987e-01,
          1.48280978e-01, 1.19116999e-01, 1.26561180e-01, 1.36210456e-01,
          2.25691050e-02, 9.67666358e-02, 1.08789988e-01, 3.00643653e-01,
          3.72978933e-02, 0., 0., 0., 0., 0., 2.32361168e-01,
          1.77119955e-01, 1.58964351e-01, 1.62472397e-01, 7.47679770e-02,
          3.54830101e-02, 1.12713739e-01, 1.20227702e-01, 3.84487957e-02,
          6.91418126e-02, 1.66347772e-01, 1.91214472e-01, 2.30981976e-01,
          2.41308391e-01, 0., 0., 0., 6.43727630e-02, 7.84088299e-02,
          9.41588730e-02, 7.18420371e-02, 7.38091916e-02, 1.08857036e-01,
          1.04496375e-01, 1.68738052e-01, 2.10141331e-01, 1.15516372e-01,
          1.38928980e-01, 7.91459233e-02, 1.04270868e-01, 1.06698036e-01,
          7.19408318e-02, 1.38842329e-01, 1.94544300e-01, 1.46725848e-01,
          8.73477533e-02, 9.83329117e-02 ]
      - [ 1.39393851e-01, 8.77474919e-02, 1.34041116e-01, 2.14162871e-01,
          2.00028628e-01, 1.91307619e-01, 0., 3.32581215e-02, 0., 0., 0.,
          4.69119027e-02, 7.88345560e-02, 1.03470154e-01, 7.95764402e-02,
          6.29617944e-02, 3.50654088e-02, 5.41451797e-02, 5.80816641e-02,
          7.03309849e-02, 1.05994426e-01, 1.92181766e-01, 0.,
          7.22351000e-02, 0., 3.17049474e-02, 6.14530556e-02, 0.,
          3.80084544e-01, 1.33695662e-01, 5.21103255e-02, 4.86608297e-02,
          1.30221412e-01, 0., 0., 1.27638668e-01, 2.00883567e-01,
          1.83225244e-01, 1.61377311e-01, 1.88097611e-01, 1.30209088e-01,
          0., 0., 0., 1.72420412e-01, 1.18510388e-01, 6.17476366e-02,
          1.15227237e-01, 8.35337564e-02, 1.10440120e-01, 1.39956176e-01,
          1.24428786e-01, 2.11885944e-01, 1.10510662e-01, 6.82781115e-02,
          1.47864044e-01, 1.73009992e-01, 3.90742309e-02, 0.,
          1.97362855e-01, 3.30339491e-01, 0., 0., 0. ]
      - [ 2.07892090e-01, 3.65488440e-01, 0., 0., 1.07805960e-01, 0., 0.,
          8.46916810e-02, 1.66330233e-01, 2.92376280e-01, 0., 0., 0., 0.,
          0., 0., 1.81536555e-01, 1.64754644e-01, 8.39221328e-02,
          2.15433657e-01, 1.48860410e-01, 1.21800967e-01, 5.64546883e-02,
          1.08649537e-01, 1.93266422e-01, 4.04732935e-02, 1.37810096e-01,
          9.28033516e-02, 9.10082757e-02, 9.81460586e-02, 9.29740593e-02,
          9.59932208e-02, 0., 0., 0., 1.89530641e-01, 1.73028558e-01,
          8.20312202e-02, 0., 2.07835492e-02, 2.14800462e-01,
          9.39474553e-02, 0., 0., 0., 0., 0., 0., 2.11317148e-02, 0., 0.,
          2.39100561e-01, 1.76552549e-01, 1.18838899e-01, 8.99894312e-02,
          0., 1.33292079e-01, 1.07970670e-01, 2.06682324e-01,
          2.92081296e-01, 1.44535109e-01, 5.10296226e-02, 5.83373308e-02,
          0. ]
      - [ 2.56018162e-01, 3.34507972e-01, 0., 4.65604030e-02,
          8.38673040e-02, 0., 0., 1.81417186e-02, 0., 2.45875761e-01, 0.,
          2.89864596e-02, 0., 0., 0., 0., 1.43604130e-01, 1.49470314e-01,
          7.63718411e-02, 1.70663774e-01, 2.03687459e-01, 1.03552476e-01,
          9.60976332e-02, 5.36664054e-02, 1.38214424e-01, 2.60365963e-01,
          0., 0., 1.01101637e-01, 7.60652050e-02, 1.12801231e-01,
          5.80335259e-02, 0., 7.25599602e-02, 1.63798839e-01,
          1.33477405e-01, 1.73888564e-01, 7.25518307e-03, 0.,
          1.45131677e-01, 2.17370123e-01, 2.32833683e-01, 0., 0., 0., 0.,
          0., 0., 0., 3.06813776e-01, 1.72426343e-01, 7.16933310e-02,
          6.26651347e-02, 8.20395872e-02, 0., 0., 1.54070377e-01,
          2.77561069e-01, 1.33570313e-01, 1.05429225e-01, 1.31433666e-01,
          3.30737606e-02, 0., 0. ]
      - [ 1.63855150e-01, 1.85030594e-01, 1.49233624e-01, 2.50419915e-01,
          6.83055669e-02, 0., 0., 0., 0., 0., 2.45475881e-02,
          1.50919914e-01, 1.04986325e-01, 1.11929923e-01, 9.93535370e-02,
          1.76194817e-01, 1.87199429e-01, 8.87217447e-02, 1.31015867e-01,
          1.55882388e-01, 1.81881875e-01, 0., 0., 0., 0., 0., 0., 0.,
          2.91267842e-01, 1.56849921e-01, 1.37983114e-01, 1.19781077e-01,
          1.06561780e-01, 0., 1.03458792e-01, 1.20508038e-01,
          5.21223769e-02, 8.38895142e-02, 1.26680866e-01, 1.17249273e-01,
          2.38456160e-01, 2.17331275e-01, 1.61654547e-01, 5.93110025e-02,
          1.52748689e-01, 6.72464818e-02, 0., 6.13639802e-02,
          1.29180804e-01, 6.22672066e-02, 1.37921005e-01, 1.39098406e-01,
          7.39873648e-02, 1.51386142e-01, 2.08562389e-01, 1.73855826e-01,
          1.61639750e-01, 1.54433474e-01, 1.18569553e-01, 4.82783876e-02,
          1.43813103e-01, 1.07431352e-01, 0., 0. ]
      - [ 2.45766640e-01, 7.70982355e-02, 5.58576584e-02, 7.37553015e-02,
          4.46231738e-02, 6.13959841e-02, 3.46496589e-02, 0.,
          7.25734532e-02, 3.91677395e-02, 6.83571473e-02, 0.,
          8.32985789e-02, 5.33048511e-02, 3.27174783e-01, 1.74402222e-01,
          2.07905769e-01, 2.76876420e-01, 1.62776798e-01, 0.,
          6.69226944e-02, 4.30350453e-02, 4.08913605e-02, 4.73076440e-02,
          5.56277558e-02, 5.66142239e-02, 6.76663741e-02, 6.79716617e-02,
          6.08950071e-02, 1.15740515e-01, 2.17445418e-01, 1.49087518e-01,
          4.12803255e-02, 7.17217177e-02, 4.31691818e-02, 0.,
          8.95489156e-02, 1.66974396e-01, 2.07986519e-01, 2.43298233e-01,
          2.07313046e-01, 1.67510033e-01, 1.64897755e-01, 0.,
          4.53482792e-02, 0., 4.56151031e-02, 5.72111569e-02, 0.,
          4.46352996e-02, 3.16565484e-02, 0., 6.00174926e-02,
          3.13503556e-02, 2.28369892e-01, 2.06135064e-01, 2.27172926e-01,
          1.64338157e-01, 1.99352294e-01, 1.55175239e-01, 4.33662981e-02,
          0., 3.79786305e-02, 0. ]
      - [ 2.61999667e-01, 9.93384793e-02, 0., 2.19939351e-02,
          3.22469324e-02, 2.09338650e-01, 1.88157916e-01, 8.51451531e-02,
          1.40127733e-01, 0., 0., 0., 1.34805143e-01, 2.00306475e-01,
          1.56913891e-01, 1.43819094e-01, 3.04243803e-01, 1.97488472e-01,
          1.45839406e-02, 0., 8.73461515e-02, 0., 1.60888489e-02, 0.,
          1.35485902e-01, 2.61628330e-01, 6.89766109e-02, 6.79961592e-02,
          6.11230880e-02, 7.31844231e-02, 1.37679234e-01, 1.21760651e-01,
          0., 0., 0., 1.64965898e-01, 3.17572385e-01, 2.07154393e-01,
          1.87962651e-01, 9.73970965e-02, 4.53785807e-02, 0., 0., 0., 0.,
          0., 0., 0., 0., 0., 0., 0., 0., 0., 0., 1.64168868e-02,
          5.47183082e-02, 1.75252080e-01, 3.59487116e-01, 1.90198258e-01,
          1.19528972e-01, 0., 0., 0. ]
      - [ 1.44149169e-01, 1.60045013e-01, 1.24236673e-01, 2.14550585e-01,
          6.62675276e-02, 2.98494603e-02, 0., 0., 0., 0., 1.96124122e-01,
          2.50602901e-01, 1.63708881e-01, 1.71963975e-01, 8.48192871e-02,
          1.24332070e-01, 3.32309693e-01, 7.04548731e-02, 0., 0., 0., 0.,
          0., 0., 0., 0., 0., 0., 1.56861879e-02, 5.44311153e-03, 0.,
          8.88328850e-02, 2.08506420e-01, 2.15515062e-01, 5.97037859e-02,
          7.64970705e-02, 0., 0., 0., 6.99655488e-02, 2.07917690e-01,
          3.25503081e-01, 0., 1.55737922e-01, 1.92343533e-01,
          1.11135475e-01, 6.82099685e-02, 7.77963549e-02, 2.33555257e-01,
          0., 0., 0., 0., 0., 0., 0., 3.95814300e-01, 1.68791875e-01, 0.,
          0., 1.77413318e-02, 4.79238927e-02, 0., 5.44499680e-02 ]
      - [ 4.06785190e-01, 1.96364164e-01, 3.98697108e-02, 0.,
          1.19729247e-02, 0., 0., 6.43865168e-02, 8.68746489e-02, 0., 0.,
          0., 0., 0., 0., 0., 2.50735253e-01, 3.04470837e-01, 0.,
          3.93079109e-02, 6.63666129e-02, 5.68036772e-02, 7.11133778e-02,
          6.59057051e-02, 9.28513929e-02, 1.17996514e-01, 0.,
          4.23720442e-02, 6.33810610e-02, 1.60221174e-01, 1.42676398e-01,
          1.53986290e-01, 0., 0., 0., 0., 1.77878365e-01, 1.57982469e-01,
          1.22950561e-01, 1.59095109e-01, 3.53051901e-01, 2.08238754e-02,
          0., 0., 0., 0., 0., 0., 9.72938091e-02, 8.82565975e-02,
          9.99315754e-02, 6.77238703e-02, 1.28898129e-01, 1.52416736e-01,
          1.83544010e-01, 1.42419800e-01, 2.48478994e-01, 2.45017156e-01,
          1.54930502e-01, 8.32334310e-02, 7.59869292e-02, 0.,
          6.37547970e-02, 0. ]
      - [ 1.73362836e-01, 4.06551778e-01, 6.55444711e-02, 0.,
          9.07628797e-03, 0., 7.89301246e-02, 6.99850023e-02,
          4.04484719e-02, 0., 0., 0., 0., 0., 0., 0., 2.47385517e-01,
          1.66914582e-01, 0., 4.70062532e-02, 8.48914497e-03,
          2.67685167e-02, 1.02818571e-01, 0., 1.27482668e-01,
          1.55555367e-01, 0., 0., 1.24275740e-02, 0., 2.91088730e-01,
          2.42296278e-01, 1.07127547e-01, 8.85544047e-02, 0., 0.,
          2.49122875e-03, 1.49470448e-01, 1.14071995e-01, 1.01430885e-01,
          2.51278251e-01, 3.11371714e-01, 0., 0., 0., 0., 0., 0.,
          1.50182797e-02, 4.79216650e-02, 7.53205642e-02, 6.97711185e-02,
          7.13802502e-02, 1.78113684e-01, 2.65889823e-01, 1.81168109e-01,
          2.92961806e-01, 0., 5.04862964e-02, 6.36660978e-02,
          7.34840184e-02, 0., 1.34629279e-01, 8.01827312e-02 ]
      - [ 3.90840948e-01, 1.85042992e-02, 3.76837850e-02, 0.,
          4.91937287e-02, 0., 0., 1.29504979e-01, 3.54742974e-01, 0., 0.,
          0., 0., 0., 0., 0., 2.84559399e-01, 2.24990234e-01,
          1.78489208e-01, 8.61117989e-02, 1.27915829e-01, 4.96068485e-02,
          9.84938219e-02, 1.02437995e-01, 2.45243818e-01, 0., 0., 0.,
          4.40752879e-02, 0., 0., 1.43279880e-01, 0., 1.59971088e-01,
          2.08970606e-01, 1.67055801e-01, 1.56365991e-01, 1.35293126e-01,
          9.18409973e-02, 1.05151772e-01, 1.01276837e-01, 0., 0., 0., 0.,
          0., 3.92166190e-02, 0., 0., 1.89597279e-01, 0., 5.97779676e-02,
          3.21619511e-02, 8.98423418e-02, 0., 4.96742167e-02,
          2.41484553e-01, 2.51864582e-01, 2.20446795e-01, 0.,
          9.43823829e-02, 5.87576106e-02, 0., 5.41670434e-02 ]
      - [ 1.65650293e-01, 3.18302900e-01, 1.61409289e-01, 4.72882986e-02,
          1.02769464e-01, 0., 0., 0., 0., 2.48157531e-01, 1.84839740e-01,
          0., 0., 0., 0., 2.65780222e-02, 2.02266574e-01, 1.30311586e-02,
          6.42805919e-02, 1.07884049e-01, 1.71458304e-01, 1.03582926e-01,
          1.21980108e-01, 1.28788173e-01, 2.11395919e-01, 9.01983976e-02,
          0., 0., 1.02658510e-01, 6.66408837e-02, 1.66161701e-01,
          1.40359119e-01, 4.83957380e-02, 2.17867941e-01, 1.23873778e-01,
          1.38340920e-01, 1.47529259e-01, 1.23351246e-01, 1.06422842e-01,
          1.03527434e-01, 1.88348562e-01, 1.78614885e-01, 1.49657369e-01,
          3.95787694e-02, 4.66730222e-02, 0., 0., 0., 2.42562324e-01,
          8.25098678e-02, 1.00204870e-01, 3.81660722e-02, 3.72096375e-02,
          0., 7.72652477e-02, 2.06009820e-01, 2.35725299e-01,
          1.45039886e-01, 1.76540226e-01, 1.76002290e-02, 8.77066329e-02,
          0., 0., 1.13287836e-01 ]
      - [ 2.43438214e-01, 2.32759565e-01, 2.22770318e-01, 3.80269028e-02,
          1.16687063e-02, 8.81954581e-02, 6.80202767e-02, 1.21809453e-01,
          1.40177310e-01, 1.17629565e-01, 0., 0., 6.93256408e-03, 0., 0.,
          2.18874469e-01, 1.72607869e-01, 4.59457003e-02, 0., 0.,
          7.84758925e-02, 8.42654482e-02, 0., 6.17728345e-02,
          7.88651258e-02, 1.11980997e-01, 8.26326162e-02, 0.,
          9.04946774e-03, 0., 7.77492896e-02, 4.02992904e-01,
          7.71029517e-02, 0., 6.78271204e-02, 0., 1.73108950e-01,
          1.63266614e-01, 8.61961097e-02, 4.62397262e-02, 1.84804261e-01,
          1.82291821e-01, 2.82522857e-01, 0., 1.50248213e-02, 0., 0., 0.,
          0., 9.89180282e-02, 6.60177618e-02, 0., 1.14523180e-01,
          9.51670334e-02, 1.81655243e-01, 1.91112578e-01, 2.69387186e-01,
          2.31966734e-01, 8.18127394e-02, 4.91192844e-03, 8.77735242e-02,
          0., 8.50011930e-02, 7.44633749e-02 ]
      - [ 2.66321659e-01, 2.07762524e-01, 8.45746547e-02, 9.39230546e-02,
          6.69690669e-02, 6.43463284e-02, 5.22174239e-02, 7.27854967e-02,
          1.35128900e-01, 1.08251929e-01, 0., 5.89050315e-02,
          6.39548823e-02, 0., 1.32536829e-01, 2.82411546e-01,
          2.12940663e-01, 0., 0., 0., 0., 0., 0., 6.00993000e-02,
          9.35884714e-02, 4.57717590e-02, 5.24870530e-02, 3.74039374e-02,
          1.03267878e-02, 0., 2.52353787e-01, 3.29772204e-01,
          1.45242870e-01, 6.82627335e-02, 5.28577231e-02, 0.,
          1.97248794e-02, 1.00619733e-01, 1.79849818e-01, 1.30966231e-01,
          2.74169177e-01, 2.25024194e-01, 2.34453455e-01, 0.,
          2.26382446e-02, 4.82617542e-02, 0., 2.69816127e-02,
          6.03531115e-02, 0., 0., 0., 0., 0., 2.44950682e-01,
          2.64102250e-01, 2.74599731e-01, 1.39602721e-02, 4.87986347e-03,
          0., 0., 0., 0., 0. ]
      - [ 2.98275232e-01, 2.28741184e-01, 1.65034175e-01, 1.22878782e-01,
          1.26505643e-01, 7.07519501e-02, 0., 6.37737587e-02,
          1.09096982e-01, 7.59341791e-02, 0., 0., 0., 0., 0.,
          8.96262825e-02, 1.90238550e-01, 0., 1.07475735e-01, 0.,
          6.19168915e-02, 7.55626485e-02, 7.44799897e-02, 6.92414567e-02,
          8.45281929e-02, 0., 0., 2.26280335e-02, 1.32300898e-01,
          2.57867217e-01, 2.36931354e-01, 2.18579456e-01, 1.81917891e-01,
          0., 0., 0., 7.99671188e-03, 0., 6.03601374e-02, 3.72867614e-01,
          2.11624086e-01, 0., 0., 0., 1.35396153e-03, 0., 0.,
          1.38469264e-01, 9.49974880e-02, 7.55278319e-02, 6.55420125e-02,
          0., 3.04371025e-02, 1.05198935e-01, 2.18312189e-01,
          1.71817258e-01, 2.40985572e-01, 1.84673578e-01, 2.15247244e-01,
          0., 3.13500836e-02, 6.77576587e-02, 8.96452218e-02,
          4.78397459e-02 ]
      - [ 2.20002234e-01, 1.56819090e-01, 1.71816558e-01, 7.85526261e-02,
          8.95032883e-02, 8.42683017e-02, 7.52677843e-02, 4.57534231e-02,
          1.19763315e-01, 5.49779497e-02, 1.46517783e-01, 0.,
          4.50521596e-02, 2.06729621e-01, 1.96710467e-01, 1.64776295e-01,
          2.47668192e-01, 2.57891178e-01, 2.50401031e-02, 0.,
          9.18359496e-03, 3.23705152e-02, 0., 0., 3.30997221e-02, 0., 0.,
          2.91371774e-02, 4.53719720e-02, 5.97748868e-02, 1.79220781e-01,
          2.08090976e-01, 1.25578344e-01, 8.01116303e-02, 1.44129798e-01,
          9.52123255e-02, 9.19427499e-02, 0., 9.10415873e-02,
          2.18570694e-01, 3.40657681e-01, 0., 2.33341400e-02,
          1.17355257e-01, 9.88665447e-02, 1.16563506e-01, 0.,
          9.50582549e-02, 6.67664036e-02, 0., 4.02161032e-02, 0.,
          1.87337361e-02, 0., 0., 2.54939646e-01, 2.56512165e-01,
          2.43088841e-01, 1.43321380e-01, 5.00932708e-02, 5.09235114e-02,
          4.58419546e-02, 3.92749235e-02, 3.86167318e-02 ]
      - [ 2.23462164e-01, 2.68767864e-01, 1.79174170e-01, 3.88749093e-02,
          7.62943849e-02, 0., 0., 0., 1.48315459e-01, 2.66476095e-01,
          1.16707474e-01, 5.83874844e-02, 2.58797668e-02, 0., 0.,
          1.24179058e-01, 2.79559284e-01, 9.34241191e-02, 0., 0., 0., 0.,
          0., 0., 0., 1.10831290e-01, 1.32499233e-01, 1.35664508e-01,
          9.76185724e-02, 1.42461702e-01, 8.09560567e-02, 0.,
          2.79811084e-01, 0., 0., 0., 4.90116552e-02, 0., 1.08931266e-01,
          1.50243655e-01, 3.27363312e-01, 2.38285977e-02, 9.62613150e-02,
          9.87241790e-02, 1.26364335e-01, 1.20803490e-01, 6.69215098e-02,
          1.13929123e-01, 2.75258809e-01, 0., 0., 0., 0., 0., 0., 0.,
          3.44189614e-01, 2.30243906e-01, 0., 0., 3.05079706e-02, 0.,
          5.17891459e-02, 0. ]
      - [ 2.66482323e-01, 1.11073524e-01, 0., 8.97472724e-02,
          8.94892365e-02, 0., 7.27346987e-02, 0., 9.72136036e-02, 0.,
          1.30524948e-01, 8.40013549e-02, 2.30229925e-02, 0.,
          1.89824715e-01, 2.87829578e-01, 2.25756690e-01, 2.42497027e-01,
          7.06861094e-02, 0., 2.69969460e-02, 0., 4.57276888e-02, 0., 0.,
          5.92003539e-02, 7.66726360e-02, 4.62770723e-02, 7.38614649e-02,
          1.47741944e-01, 2.76950538e-01, 1.35332882e-01, 6.86494038e-02,
          1.04770482e-01, 1.14498310e-01, 6.51830435e-02, 2.66232621e-02,
          9.90244076e-02, 2.27679580e-01, 1.33690506e-01, 2.25404426e-01,
          3.07027996e-01, 5.05207181e-02, 0., 7.99035653e-02, 0.,
          5.36740348e-02, 0., 4.05047275e-02, 7.62109235e-02, 0., 0.,
          3.41655919e-03, 0., 1.20063052e-01, 3.15873116e-01,
          2.94640034e-01, 7.74226263e-02, 4.19456214e-02, 0.,
          3.39495321e-03, 4.95441332e-02, 0., 4.56351154e-02 ]
      - [ 9.99045745e-02, 7.75912851e-02, 2.36563027e-01, 2.64251560e-01,
          1.89828485e-01, 0., 0., 0., 1.99699607e-02, 1.93957567e-01,
          1.42817944e-01, 0., 0., 0., 0., 0., 5.77471107e-02, 0., 0., 0.,
          1.25228301e-01, 1.31783769e-01, 1.01749472e-01, 9.39723104e-02,
          1.03260629e-01, 0., 2.27747727e-02, 6.23749457e-02,
          3.11287999e-01, 2.29683951e-01, 1.39049575e-01, 5.91538548e-02,
          1.24016270e-01, 0., 0., 0., 3.04431289e-01, 2.22174942e-01,
          1.15034908e-01, 5.00022061e-02, 5.72428182e-02, 0.,
          5.09742126e-02, 1.83403179e-01, 1.61800012e-01, 1.03327371e-01,
          8.01698640e-02, 7.34566450e-02, 0., 1.05869591e-01,
          1.98913381e-01, 1.81266114e-01, 7.24451467e-02, 0., 0., 0.,
          7.17854053e-02, 1.00754693e-01, 2.84587234e-01, 2.33897582e-01,
          1.39289796e-01, 0., 0., 0. ]
      - [ 1.90879241e-01, 1.70002893e-01, 8.95768255e-02, 3.65463011e-02,
          2.33736672e-02, 0., 0., 0., 0., 0., 0., 0., 3.03734511e-01,
          1.42450094e-01, 1.25783056e-01, 4.03164849e-02, 1.09911434e-01,
          1.02955908e-01, 3.43483925e-01, 9.54906642e-02, 1.11183442e-01,
          0., 0., 0., 5.66101745e-02, 0., 1.50501654e-02, 2.15085164e-01,
          2.24092200e-01, 1.08756259e-01, 7.99436346e-02, 0.,
          1.27781421e-01, 1.48378059e-01, 0., 4.15203162e-02,
          8.93882513e-02, 7.42795542e-02, 1.64560810e-01, 1.77296728e-01,
          2.40918040e-01, 2.23623112e-01, 0., 0., 8.53418931e-02,
          1.24805748e-01, 9.63396877e-02, 9.82863903e-02, 1.19377010e-01,
          5.39374016e-02, 0., 0., 1.15616456e-01, 2.75693715e-01,
          1.47079483e-01, 1.40350908e-01, 1.07109509e-01, 2.15786099e-01,
          4.11662497e-02, 0., 1.76018268e-01, 1.18216999e-01, 0., 0. ]
      - [ 3.47681314e-01, 8.01929682e-02, 8.81488919e-02, 8.15187618e-02,
          6.66734055e-02, 0., 0., 1.16177164e-01, 1.01370074e-01,
          1.77719951e-01, 6.60003722e-02, 0., 2.89322920e-02, 0., 0.,
          2.99838632e-01, 3.26406717e-01, 8.82641226e-02, 6.36099353e-02,
          8.85334015e-02, 5.85321002e-02, 0., 4.76653241e-02,
          8.42630416e-02, 7.68474042e-02, 1.06585465e-01, 0.,
          4.44954708e-02, 2.09039878e-02, 1.24274582e-01, 5.49797229e-02,
          2.92816341e-01, 0., 0., 0., 7.08166063e-02, 1.10072330e-01,
          1.90791622e-01, 1.21125378e-01, 1.48407385e-01, 2.09304750e-01,
          1.41033456e-01, 2.91678846e-01, 0., 1.49953999e-02, 0., 0., 0.,
          0., 2.89554223e-02, 0., 0., 0., 2.78762225e-02, 2.70534992e-01,
          2.19811112e-01, 2.35468820e-01, 1.50567353e-01, 0., 0., 0., 0.,
          0., 0. ]
      - [ 3.49923491e-01, 1.71077102e-01, 6.26244396e-02, 0.,
          6.11488223e-02, 6.47523701e-02, 9.88758579e-02, 1.19418770e-01,
          1.51634634e-01, 9.70476493e-02, 1.09167300e-01, 1.31208241e-01,
          0., 0., 2.58386806e-02, 0., 2.19380826e-01, 0., 3.47363427e-02,
          1.33624434e-01, 8.14970955e-02, 1.03709184e-01, 1.04160361e-01,
          1.62839651e-01, 1.86137721e-01, 7.80211166e-02, 0.,
          5.73313832e-02, 6.61467984e-02, 7.16682151e-02, 1.51743606e-01,
          2.45404452e-01, 1.02645904e-01, 9.66792032e-02, 1.22915968e-01,
          1.12449646e-01, 1.07646525e-01, 1.33128613e-01, 1.77584291e-01,
          2.50409633e-01, 1.68300033e-01, 6.64296895e-02, 0.,
          6.92320168e-02, 4.14761007e-02, 5.86057045e-02, 0.,
          1.70718178e-01, 1.47342846e-01, 1.47835314e-01, 1.21665306e-01,
          1.24558829e-01, 0., 0., 0., 1.38659729e-02, 2.80081391e-01,
          2.48341292e-01, 6.25758693e-02, 5.37393913e-02, 6.93105981e-02,
          0., 6.21116385e-02, 1.36998504e-01 ]
      - [ 2.97723770e-01, 1.61941260e-01, 1.89624295e-01, 7.52148032e-02,
          1.95340648e-01, 0., 0., 0., 0., 0., 0., 0., 0., 0., 0.,
          3.73799168e-02, 1.19353130e-01, 0., 5.72893135e-02,
          1.14506222e-01, 2.18938336e-01, 0., 0., 0., 0., 0., 0., 0.,
          2.68609941e-01, 3.09568644e-01, 5.11031710e-02, 1.00343086e-01,
          9.64579135e-02, 0., 8.11345205e-02, 2.48304620e-01,
          1.13606356e-01, 1.38554603e-01, 1.55395687e-01, 1.31078720e-01,
          1.26558542e-01, 1.86224997e-01, 2.86275238e-01, 0.,
          9.04840231e-02, 0., 0., 0., 1.07845604e-01, 4.63050865e-02,
          6.18487559e-02, 5.20965643e-02, 2.08901972e-01, 2.67329216e-01,
          7.14929998e-02, 6.74410835e-02, 7.03003258e-02, 0.,
          1.11256994e-01, 9.96105596e-02, 2.74141967e-01, 6.20925203e-02,
          0., 3.98118757e-02 ]
      - [ 1.79159239e-01, 3.36141497e-01, 1.77809641e-01, 1.87388454e-02,
          8.56641382e-02, 0., 0., 0., 0., 1.55281007e-01, 1.88314170e-01,
          0., 0., 0., 1.96099728e-02, 0., 1.64404094e-01, 1.37795001e-01,
          1.39790848e-01, 1.36020094e-01, 1.33732900e-01, 1.14064731e-01,
          1.00512944e-01, 1.05701275e-01, 1.40780628e-01, 1.87628433e-01,
          0., 0., 2.07680807e-01, 1.42680392e-01, 1.29036948e-01,
          7.69349262e-02, 4.33034301e-02, 0., 8.77877176e-02,
          1.39953449e-01, 1.45601854e-01, 7.55464435e-02, 1.81427132e-02,
          6.62808791e-02, 1.98333070e-01, 2.70088583e-01, 1.20525680e-01,
          0., 0., 0., 0., 0., 5.20222448e-02, 1.50297120e-01,
          2.65516073e-01, 1.06822953e-01, 1.23489141e-01, 1.07489862e-01,
          8.07970166e-02, 2.23277342e-02, 1.63192078e-01, 1.88998669e-01,
          2.59531617e-01, 4.05062921e-02, 1.34782121e-01, 0.,
          1.31841321e-02, 0. ]
      - [ 3.10673416e-01, 1.88515663e-01, 0., 0., 2.90082172e-02, 0., 0.,
          0., 1.63066640e-01, 1.51788667e-01, 1.93281531e-01, 0.,
          1.18646994e-01, 1.09025285e-01, 1.37891114e-01, 1.55632988e-01,
          3.61388683e-01, 0., 0., 0., 0., 0., 0., 0., 0., 0., 0., 0.,
          9.05482471e-02, 5.36347926e-02, 8.31723660e-02, 2.10757837e-01,
          2.46064633e-01, 0., 0., 4.50670272e-02, 2.08733678e-02, 0.,
          7.74216279e-02, 2.08811611e-01, 3.84442478e-01, 2.56553516e-02,
          0., 0., 1.08727351e-01, 0., 1.29298151e-01, 1.09942637e-01,
          1.22404501e-01, 0., 0., 0., 0., 0., 0., 2.03214530e-02,
          4.36588675e-01, 1.00815631e-01, 0., 0., 6.28402084e-03, 0., 0.,
          0. ]
      - [ 2.71699041e-01, 2.42457047e-01, 6.19895719e-02, 0., 0., 0.,
          7.24872425e-02, 8.94770920e-02, 9.47314650e-02, 8.71116370e-02,
          0., 0., 2.58873682e-02, 0., 1.44867972e-01, 2.28555411e-01,
          3.47113311e-01, 2.63147235e-01, 0., 0., 2.84546497e-03,
          3.78782414e-02, 0., 0., 4.43830304e-02, 0., 5.10033295e-02, 0.,
          0., 0., 7.45590180e-02, 2.58477747e-01, 0., 0., 0.,
          1.74930811e-01, 1.14576072e-01, 1.67251557e-01, 1.10158578e-01,
          1.56727865e-01, 2.65171260e-01, 2.27633119e-01, 0., 0.,
          1.85612845e-03, 0., 0., 0., 0., 0., 5.23917004e-02, 0., 0., 0.,
          2.44025085e-02, 2.99953252e-01, 3.58171195e-01, 1.97881386e-01,
          0., 0., 0., 0., 0., 2.05890145e-02 ]
      - [ 3.74286436e-02, 6.12185746e-02, 3.10826808e-01, 2.53221631e-01,
          1.43472880e-01, 0., 0., 0., 0., 8.66048113e-02, 1.85421899e-01,
          1.62578151e-01, 5.23772277e-02, 0., 0., 0., 3.49507816e-02, 0.,
          1.34218514e-01, 1.30924940e-01, 1.36625588e-01, 9.80689228e-02,
          0., 9.60826352e-02, 1.16067320e-01, 7.52674788e-02,
          2.81105656e-02, 1.92026749e-01, 2.81397343e-01, 2.04193324e-01,
          9.35651511e-02, 4.69960347e-02, 1.08219102e-01, 0., 0.,
          1.39818892e-01, 1.85507879e-01, 1.80877745e-01, 2.42962897e-01,
          1.78814724e-01, 8.27857852e-02, 0., 0., 0., 1.15041912e-01,
          7.03268424e-02, 1.16238415e-01, 6.03880472e-02, 1.79179236e-02,
          1.09530799e-01, 1.57264084e-01, 0., 1.09786086e-01,
          8.62274542e-02, 1.26847148e-01, 1.02740228e-01, 8.60776231e-02,
          0., 1.27970949e-01, 2.81486273e-01, 2.48505175e-01, 0.,
          1.97722912e-02, 0. ]
      - [ 4.34568465e-01, 8.96941498e-02, 0., 0., 8.80331025e-02, 0., 0.,
          0., 1.51256233e-01, 6.75516054e-02, 0., 0., 1.94067322e-03, 0.,
          0., 2.26267815e-01, 1.53613791e-01, 0., 0., 0., 0., 0., 0.,
          1.57622948e-01, 4.23754714e-02, 0., 0., 0., 0., 9.21799392e-02,
          1.56812310e-01, 4.30361778e-01, 0., 0., 0., 0., 0., 0.,
          1.94785818e-01, 2.64947295e-01, 2.75518686e-01, 1.71205446e-01,
          1.63072124e-01, 0., 0., 0., 0., 0., 0., 0., 0., 0., 0., 0.,
          2.10930710e-03, 3.93226594e-01, 2.13310406e-01, 8.85265395e-02,
          1.59261879e-02, 0., 0., 0., 0., 0. ]
      - [ 1.87823236e-01, 8.68039355e-02, 6.56201914e-02, 9.10795033e-02,
          5.92094250e-02, 6.90236539e-02, 2.95671578e-02, 0.,
          3.07134241e-02, 0., 0., 1.00198306e-01, 2.02683195e-01,
          1.80029422e-01, 2.09659904e-01, 1.17531173e-01, 1.67029336e-01,
          8.31518471e-02, 8.73675346e-02, 1.00611269e-01, 1.96603835e-01,
          1.77112833e-01, 1.95651665e-01, 1.61381990e-01, 1.69342477e-02,
          0., 0., 0., 9.92720798e-02, 9.86656621e-02, 1.69436112e-01,
          1.41935319e-01, 7.12048113e-02, 6.88375905e-02, 5.40381074e-02,
          0., 1.32502019e-01, 1.33640245e-01, 2.38109916e-01,
          1.62360400e-01, 2.46942267e-01, 3.31036262e-02, 0.,
          4.43429723e-02, 1.59700006e-01, 1.67454287e-01, 8.09919834e-02,
          0., 1.81121856e-01, 1.18100092e-01, 2.00076759e-01,
          1.39921173e-01, 5.42928353e-02, 0., 7.00384602e-02,
          1.39580831e-01, 2.38315344e-01, 1.93596616e-01, 5.88330738e-02,
          0., 8.64632279e-02, 8.42012987e-02, 1.25204459e-01,
          1.43272996e-01 ]
      - [ 2.45312899e-01, 3.14087212e-01, 2.07786962e-01, 7.67708719e-02,
          9.02612507e-02, 6.54325187e-02, 0., 7.56900311e-02,
          3.34090889e-02, 1.38041764e-01, 1.16375603e-01, 3.77833582e-02,
          8.52680877e-02, 6.71640709e-02, 0., 0., 1.68423742e-01, 0.,
          5.69160394e-02, 7.02029318e-02, 6.84037805e-02, 5.66301160e-02,
          0., 0., 0., 0., 0., 1.04610994e-01, 2.60137826e-01,
          2.00990587e-01, 1.80629700e-01, 1.94363296e-01, 1.74493287e-02,
          8.82469639e-02, 1.46479607e-01, 5.17749935e-02, 1.71652555e-01,
          1.77223682e-01, 1.68364957e-01, 1.43749386e-01, 2.11654648e-01,
          2.15887815e-01, 4.80620638e-02, 4.97973524e-02, 1.09724216e-01,
          0., 6.16616532e-02, 3.84710990e-02, 1.34947509e-01,
          4.42696176e-02, 0., 0., 0., 0., 0., 0., 3.73431414e-01,
          2.16781020e-01, 6.12151399e-02, 0., 3.72503027e-02,
          7.07913861e-02, 1.11866750e-01, 9.09822509e-02 ]
      - [ 2.03382701e-01, 2.80828655e-01, 1.02918461e-01, 1.16903163e-01,
          2.06665054e-01, 1.20162785e-01, 1.03512883e-01, 1.05628207e-01,
          1.61778733e-01, 0., 0., 0., 3.43858935e-02, 3.41222174e-02, 0.,
          0., 1.31394833e-01, 1.21445835e-01, 1.03190027e-01,
          2.10696086e-02, 5.36526702e-02, 0., 1.00270130e-01,
          5.88002987e-02, 1.12548500e-01, 1.56994581e-01, 1.20139837e-01,
          0., 1.43520772e-01, 2.05535024e-01, 2.31598824e-01,
          1.61859795e-01, 8.63280147e-02, 1.10987626e-01, 0.,
          1.66134581e-01, 1.12977959e-01, 0., 5.94631694e-02,
          1.42928153e-01, 3.02176625e-01, 2.28504494e-01, 0., 0.,
          6.68493891e-03, 0., 0., 0., 0., 0., 0., 2.04736665e-01,
          1.83712706e-01, 5.63050769e-02, 1.13392003e-01, 7.72799104e-02,
          7.41058514e-02, 6.90212250e-02, 1.61156490e-01, 3.41194570e-01,
          1.26767159e-01, 0., 0., 0. ]
      - [ 3.70636910e-01, 2.06620306e-01, 5.12016937e-02, 2.95344405e-02,
          1.66812185e-02, 0., 3.00086457e-02, 3.89605872e-02,
          2.04996690e-01, 0., 8.33579302e-02, 6.97976053e-02,
          5.02014309e-02, 0., 0., 4.69393320e-02, 2.13464379e-01, 0., 0.,
          3.29400450e-02, 6.55841008e-02, 7.46775419e-02, 1.10839419e-01,
          1.66856229e-01, 9.69350561e-02, 0., 0., 0., 1.74001660e-02,
          9.44917202e-02, 2.28052288e-01, 3.00488740e-01, 0., 0., 0., 0.,
          4.60392833e-02, 0., 1.65127963e-01, 3.36792618e-01,
          2.14214638e-01, 0., 0., 0., 6.76327711e-03, 1.28576502e-01,
          1.13028429e-01, 1.83034673e-01, 1.67710066e-01, 1.25092134e-01,
          1.00280464e-01, 7.37363473e-02, 0., 2.55859103e-02,
          3.68210189e-02, 5.45118563e-02, 4.20905024e-01, 0.,
          4.69188206e-02, 0., 4.92091402e-02, 0., 0., 0. ]
      - [ 4.28377613e-02, 1.51331544e-01, 1.55268684e-01, 1.54087603e-01,
          1.70661747e-01, 1.27421007e-01, 1.18132703e-01, 9.03090313e-02,
          1.70931756e-01, 2.02239603e-01, 0., 0., 0., 0., 0., 0.,
          1.01033673e-01, 0., 7.29598254e-02, 1.09381989e-01,
          2.07013711e-01, 1.03818275e-01, 9.00445953e-02, 6.43401369e-02,
          0., 0., 0., 0., 3.14741671e-01, 2.05958739e-01, 1.53698251e-01,
          3.30652259e-02, 2.77141869e-01, 2.68336326e-01, 7.48866424e-02,
          0., 4.83873859e-02, 6.55593500e-02, 8.28863457e-02,
          1.00904979e-01, 2.99716473e-01, 0., 0., 0., 9.09474418e-02, 0.,
          0., 0., 9.90438908e-02, 1.43084005e-01, 1.15410633e-01, 0.,
          1.68958813e-01, 1.23005494e-01, 1.18170753e-01, 1.22345500e-01,
          2.18980923e-01, 8.07213709e-02, 1.46307454e-01, 1.67995378e-01,
          1.23775654e-01, 5.80595955e-02, 1.22613184e-01, 0. ]
      - [ 1.83983713e-01, 1.70142591e-01, 1.04633570e-01, 0.,
          2.79680062e-02, 1.03670470e-01, 1.15700923e-01, 9.43846181e-02,
          6.97717965e-02, 6.82484582e-02, 0., 9.67549458e-02,
          3.31510678e-02, 0., 2.58178532e-01, 2.28121966e-01,
          2.11023793e-01, 2.19035834e-01, 1.67088985e-01, 0.,
          1.36869475e-01, 8.70211646e-02, 6.86151236e-02, 3.88324298e-02,
          6.75230101e-02, 6.96493685e-02, 4.36308794e-02, 1.23070516e-01,
          7.75675997e-02, 1.00286223e-01, 1.88880071e-01, 1.64276719e-01,
          2.24032365e-02, 0., 0., 1.41717404e-01, 1.76319942e-01,
          1.61796361e-01, 1.50686353e-01, 1.09335028e-01, 2.40555152e-01,
          1.64021999e-01, 1.15176938e-01, 9.95270908e-02, 1.87700331e-01,
          0., 2.65846774e-02, 0., 8.99120048e-02, 0., 9.15395394e-02,
          7.41219670e-02, 3.09743118e-02, 0., 0., 2.93819368e-01,
          2.28670865e-01, 2.11635053e-01, 6.18235618e-02, 3.53848450e-02,
          7.66946897e-02, 1.00223474e-01, 1.03120126e-01, 3.53079811e-02 ]
      - [ 9.07873437e-02, 3.57178211e-01, 1.98256046e-01, 0.,
          3.15022059e-02, 2.98097692e-02, 0., 4.84339185e-02,
          8.02701637e-02, 1.77015945e-01, 0., 0., 0., 0., 0., 0.,
          1.53368965e-01, 2.56185204e-01, 0., 1.31099701e-01,
          1.38160065e-01, 7.59593770e-02, 6.37216344e-02, 1.60797924e-01,
          1.87931553e-01, 0., 0., 4.27311845e-02, 1.04416385e-01,
          9.58441347e-02, 2.60254204e-01, 1.24041446e-01, 9.41211060e-02,
          1.00626886e-01, 1.23037927e-01, 1.06365502e-01, 1.55707717e-01,
          8.08989108e-02, 0., 1.03627807e-02, 1.99588388e-01,
          3.06547016e-01, 0., 0., 6.99071260e-03, 0., 0., 0., 0.,
          3.76777351e-02, 2.77125180e-01, 1.25488058e-01, 1.56293020e-01,
          9.89357010e-02, 1.09209388e-01, 8.90287980e-02, 1.71773210e-01,
          1.44509286e-01, 2.11750492e-01, 5.82117252e-02, 1.32471606e-01,
          0., 6.60675615e-02, 5.15053496e-02 ]
      - [ 3.46796036e-01, 2.58251667e-01, 7.26291835e-02, 0.,
          7.01180920e-02, 0., 2.79095042e-02, 3.66588272e-02,
          4.26801406e-02, 0., 6.65030181e-02, 6.12822883e-02,
          1.49161685e-02, 0., 1.18332304e-01, 2.14262173e-01,
          1.52792111e-01, 0., 0., 0., 0., 0., 0., 0., 0., 0., 0., 0.,
          1.31325554e-02, 2.09604606e-01, 2.57982105e-01, 3.38389099e-01,
          0., 2.32819486e-02, 0., 0., 2.68940907e-02, 6.47405088e-02,
          2.04630390e-01, 2.18931243e-01, 3.00518453e-01, 2.05627754e-01,
          1.79202929e-01, 0., 1.90550797e-02, 0., 0., 0., 0., 0., 0., 0.,
          0., 0., 9.96983610e-04, 2.28785530e-01, 4.06793684e-01,
          1.69835705e-02, 6.01957142e-02, 0., 2.87782890e-03, 0., 0., 0. ]
      - [ 4.92096931e-01, 5.70369661e-02, 7.83907175e-02, 0., 0., 0., 0.,
          0., 1.35597304e-01, 0., 0., 0., 0., 0., 9.51690308e-04,
          1.28436461e-03, 3.29267502e-01, 0., 0., 0., 0., 0., 0.,
          1.48171127e-01, 1.68874353e-01, 0., 0., 0., 0., 6.34840131e-02,
          1.93515688e-01, 3.14862967e-01, 0., 0., 0., 0., 0., 0.,
          1.04128025e-01, 1.72225013e-01, 4.33577031e-01, 6.79547805e-03,
          0., 0., 0., 0., 0., 0., 0., 0., 0., 0., 0., 1.21625140e-02,
          2.56274998e-01, 2.02849701e-01, 3.08274895e-01, 0., 0., 0., 0.,
          0., 0., 0. ]
      - [ 4.41744924e-01, 1.94176614e-01, 0., 0., 4.41266736e-03, 0., 0.,
          0., 0., 0., 0., 0., 0., 0., 0., 0., 4.28169191e-01,
          2.55546421e-02, 0., 2.52697784e-02, 1.08840698e-02,
          4.11823206e-02, 5.18456511e-02, 0., 5.67088015e-02,
          5.09090014e-02, 3.32961790e-02, 4.69034463e-02, 7.06570223e-03,
          5.98922074e-02, 1.35109648e-01, 2.09904611e-01, 0., 0., 0., 0.,
          5.49121667e-03, 0., 2.94360965e-01, 3.58831912e-01,
          1.52879313e-01, 0., 0., 0., 0., 0., 0., 0., 0., 0.,
          3.63301262e-02, 4.66865450e-02, 3.84693705e-02, 0.,
          1.09514803e-01, 2.85062432e-01, 3.30003351e-01, 1.97349340e-01,
          1.00082457e-01, 6.39812723e-02, 2.56886762e-02, 4.01717089e-02,
          0., 4.08605374e-02 ]
      - [ 1.06416121e-01, 2.50708610e-01, 2.15782121e-01, 2.08756968e-01,
          1.71803430e-01, 6.34430051e-02, 7.95484260e-02, 4.46025878e-02,
          4.91443127e-02, 0., 6.51589334e-02, 1.49685770e-01, 0., 0., 0.,
          0., 1.37563616e-01, 7.20504075e-02, 1.00723699e-01,
          2.38661364e-01, 8.82256776e-02, 0., 0., 0., 1.50049292e-02, 0.,
          4.76828553e-02, 2.41390705e-01, 2.61825830e-01, 1.12918958e-01,
          9.60904211e-02, 9.93798003e-02, 7.75754675e-02, 0., 0.,
          1.98583409e-01, 1.59964532e-01, 1.59751162e-01, 1.20166905e-01,
          1.01728350e-01, 1.80898666e-01, 1.34345248e-01, 2.42243260e-01,
          1.38751388e-01, 3.61188650e-02, 0., 0., 0., 0., 1.00333497e-01,
          9.37956274e-02, 1.96542799e-01, 1.13036983e-01, 1.56266958e-01,
          2.53124870e-02, 4.65436019e-02, 1.29162088e-01, 9.64473784e-02,
          2.76639998e-01, 1.13199301e-01, 1.48441061e-01, 8.76895934e-02,
          7.80803412e-02, 6.75281882e-02 ]
      - [ 1.91735655e-01, 2.32701316e-01, 2.70564795e-01, 1.15395680e-01,
          8.58474225e-02, 1.08532913e-01, 0., 8.00216347e-02,
          8.62429738e-02, 7.55940899e-02, 1.32837668e-01, 0.,
          1.69697665e-02, 0., 0., 1.45565733e-01, 2.48647198e-01,
          9.64563398e-04, 0., 0., 0., 0., 0., 0., 0., 0., 0.,
          1.40536457e-01, 2.26878941e-01, 1.71670958e-01, 1.60712615e-01,
          1.23093590e-01, 9.15399715e-02, 6.89221099e-02, 2.20933154e-01,
          1.62838519e-01, 9.27256197e-02, 5.39382882e-02, 1.60308897e-01,
          1.11271441e-01, 2.47909367e-01, 1.39043540e-01, 2.61289120e-01,
          0., 4.91281338e-02, 0., 0., 0., 1.83985636e-01, 0., 0., 0., 0.,
          0., 0., 0., 4.07478899e-01, 1.34495467e-01, 0., 3.72423977e-02,
          7.91080520e-02, 7.55313933e-02, 9.00738686e-02, 1.10771224e-01 ]
      - [ 2.95481682e-01, 1.96106709e-03, 0., 0., 0., 0., 0., 0., 0., 0.,
          0., 0., 2.10669205e-01, 2.55639285e-01, 1.77510113e-01,
          1.12011276e-01, 4.04087633e-01, 2.19204538e-02, 0., 0., 0., 0.,
          0., 0., 0., 0., 0., 0., 0., 6.46104068e-02, 0., 2.27636233e-01,
          1.95164785e-01, 5.69433756e-02, 0., 0., 5.48982210e-02,
          7.12947845e-02, 9.54591781e-02, 3.19134921e-01, 3.40472937e-01,
          0., 0., 0., 3.08965612e-02, 7.20852464e-02, 9.72248092e-02,
          6.57016188e-02, 8.69938955e-02, 0., 0., 0., 0., 0., 0., 0.,
          4.57002074e-01, 1.61013946e-01, 1.95054077e-02, 0.,
          1.35023091e-02, 0., 0., 0. ]
      - [ 0., 5.12809900e-04, 3.19963872e-01, 2.78532892e-01,
          2.07237557e-01, 1.23047091e-01, 7.43006393e-02, 0., 0., 0., 0.,
          0., 0., 0., 0., 0., 0., 8.37626904e-02, 7.33658820e-02, 0.,
          8.44285190e-02, 3.68811712e-02, 0., 2.55869739e-02, 0., 0., 0.,
          9.99263376e-02, 4.79837090e-01, 0., 7.13639483e-02, 0., 0., 0.,
          0., 0., 4.25604105e-01, 1.90896675e-01, 9.11195502e-02, 0., 0.,
          0., 0., 0., 0., 0., 0., 0., 0., 0., 0., 7.80672655e-02,
          7.92132020e-02, 5.24847582e-02, 5.54332808e-02, 0.,
          6.56350404e-02, 0., 2.52692521e-01, 3.01897377e-01,
          2.93575823e-01, 0., 0., 0. ]
      - [ 1.94178700e-01, 1.44043267e-01, 4.92286012e-02, 0.,
          7.89097697e-02, 1.59840554e-01, 1.15402162e-01, 8.06695819e-02,
          6.43438175e-02, 1.35853484e-01, 1.08597927e-01, 1.61589101e-01,
          7.48172328e-02, 1.22586533e-01, 2.81140149e-01, 1.31802186e-01,
          3.14125299e-01, 2.43105263e-01, 3.71952355e-02, 5.16414419e-02,
          1.28860418e-02, 0., 2.23631095e-02, 0., 5.07064015e-02, 0.,
          5.96225336e-02, 0., 4.99170087e-02, 0., 1.47806674e-01,
          1.76373810e-01, 0., 2.43257824e-02, 1.89867020e-01,
          1.35154977e-01, 5.95241413e-02, 1.53472319e-01, 1.63623467e-01,
          1.28938019e-01, 2.40436763e-01, 1.63943797e-01, 4.25097682e-02,
          4.72554080e-02, 1.55735761e-01, 1.30526423e-01, 6.02627061e-02,
          1.11921825e-01, 0., 0., 0., 0., 5.02685830e-02, 0., 0.,
          1.65515378e-01, 3.01297039e-01, 2.93880641e-01, 7.96371177e-02,
          1.46473376e-02, 2.67761908e-02, 0., 0., 0. ]
      - [ 2.59768248e-01, 1.23748057e-01, 1.28682688e-01, 1.18811436e-01,
          9.17774439e-02, 1.31147921e-01, 8.40764716e-02, 0., 0., 0., 0.,
          0., 0., 0., 0., 2.95792967e-01, 3.11056197e-01, 0.,
          9.99473631e-02, 0., 1.17435135e-01, 0., 1.37714311e-01,
          1.39255270e-01, 3.37993875e-02, 0., 5.75269088e-02,
          2.12774992e-01, 1.93254024e-01, 1.59214422e-01, 1.04653157e-01,
          1.45322397e-01, 0., 0., 0., 0., 1.60138793e-02, 2.03620587e-02,
          3.90565023e-02, 3.81853461e-01, 1.74749210e-01, 0., 0., 0.,
          3.81386082e-04, 0., 0., 1.02514252e-01, 1.17531337e-01,
          9.20183808e-02, 0., 6.25865608e-02, 1.30302057e-01,
          1.66963130e-01, 1.77144825e-01, 1.68319553e-01, 1.57949343e-01,
          2.21989065e-01, 1.87189147e-01, 0., 1.08940318e-01,
          5.57130650e-02, 1.13635369e-01, 7.73838088e-02 ]
      - [ 1.53652966e-01, 2.84056455e-01, 0., 1.01932377e-01,
          1.71758831e-01, 1.31497502e-01, 1.23104610e-01, 1.63860023e-01,
          1.97346270e-01, 0., 2.56912149e-02, 1.53033301e-01,
          5.79484776e-02, 0., 0., 6.99167848e-02, 2.82913655e-01, 0., 0.,
          0., 0., 0., 0., 0., 0., 0., 0., 2.80603588e-01, 2.18319580e-01,
          8.29133764e-02, 0., 1.39299259e-01, 1.31856054e-01,
          2.60787517e-01, 1.15738839e-01, 1.40334710e-01, 1.88854739e-01,
          0., 7.54355043e-02, 7.36817047e-02, 1.49076059e-01,
